<?xml version="1.0"?>
<opencv_storage>
<cascade>
  <stageType>BOOST</stageType>
  <featureType>HAAR</featureType>
  <height>20</height>
  <width>20</width>
  <stageParams>
    <boostType>GAB</boostType>
    <minHitRate>9.9500000476837158e-01</minHitRate>
    <maxFalseAlarm>1.0000000149011612e-01</maxFalseAlarm>
    <weightTrimRate>9.4999999999999996e-01</weightTrimRate>
    <maxDepth>1</maxDepth>
    <maxWeakCount>100</maxWeakCount></stageParams>
  <featureParams>
    <maxCatCount>0</maxCatCount>
    <featSize>1</featSize>
    <mode>BASIC</mode></featureParams>
  <stageNum>3</stageNum>
  <stages>
    <!-- stage 0 -->
    <_>
      <maxWeakCount>1</maxWeakCount>
      <stageThreshold>9.6078431606292725e-01</stageThreshold>
      <weakClassifiers>
        <_>
          <internalNodes>
            0 -1 2 8.9280396699905396e-02</internalNodes>
          <leafValues>
            -1. 9.6078431606292725e-01</leafValues></_></weakClassifiers></_>
    <!-- stage 1 -->
    <_>
      <maxWeakCount>2</maxWeakCount>
      <stageThreshold>8.4423255175352097e-03</stageThreshold>
      <weakClassifiers>
        <_>
          <internalNodes>
            0 -1 3 2.9438000917434692e-01</internalNodes>
          <leafValues>
            -9.6039605140686035e-01 9.8994976282119751e-01</leafValues></_>
        <_>
          <internalNodes>
            0 -1 1 1.9374868273735046e-01</internalNodes>
          <leafValues>
            -9.8150742053985596e-01 9.8066848516464233e-01</leafValues></_></weakClassifiers></_>
    <!-- stage 2 -->
    <_>
      <maxWeakCount>3</maxWeakCount>
      <stageThreshold>8.8622254133224487e-01</stageThreshold>
      <weakClassifiers>
        <_>
          <internalNodes>
            0 -1 0 9.6932835876941681e-02</internalNodes>
          <leafValues>
            -9.7938144207000732e-01 9.6059113740921021e-01</leafValues></_>
        <_>
          <internalNodes>
            0 -1 5 3.9210859686136246e-03</internalNodes>
          <leafValues>
            9.1737288236618042e-01 -9.8240929841995239e-01</leafValues></_>
        <_>
          <internalNodes>
            0 -1 4 2.4632040411233902e-02</internalNodes>
          <leafValues>
            -9.4981348514556885e-01 9.4823110103607178e-01</leafValues></_></weakClassifiers></_></stages>
  <features>
    <_>
      <rects>
        <_>
          1 4 18 4 -1.</_>
        <_>
          7 4 6 4 3.</_></rects>
      <tilted>0</tilted></_>
    <_>
      <rects>
        <_>
          3 6 14 12 -1.</_>
        <_>
          3 10 14 4 3.</_></rects>
      <tilted>0</tilted></_>
    <_>
      <rects>
        <_>
          3 14 15 3 -1.</_>
        <_>
          8 14 5 3 3.</_></rects>
      <tilted>0</tilted></_>
    <_>
      <rects>
        <_>
          4 4 15 15 -1.</_>
        <_>
          4 9 15 5 3.</_></rects>
      <tilted>0</tilted></_>
    <_>
      <rects>
        <_>
          5 3 10 4 -1.</_>
        <_>
          5 5 10 2 2.</_></rects>
      <tilted>0</tilted></_>
    <_>
      <rects>
        <_>
          6 11 9 4 -1.</_>
        <_>
          9 11 3 4 3.</_></rects>
      <tilted>0</tilted></_></features></cascade>
</opencv_storage>
