<?xml version="1.0"?>
<opencv_storage>
<cascade>
  <stageType>BOOST</stageType>
  <featureType>HAAR</featureType>
  <height>20</height>
  <width>20</width>
  <stageParams>
    <boostType>GAB</boostType>
    <minHitRate>9.9500000476837158e-01</minHitRate>
    <maxFalseAlarm>1.0000000149011612e-01</maxFalseAlarm>
    <weightTrimRate>9.4999999999999996e-01</weightTrimRate>
    <maxDepth>1</maxDepth>
    <maxWeakCount>100</maxWeakCount></stageParams>
  <featureParams>
    <maxCatCount>0</maxCatCount>
    <featSize>1</featSize>
    <mode>BASIC</mode></featureParams>
  <stageNum>25</stageNum>
  <stages>
    <!-- stage 0 -->
    <_>
      <maxWeakCount>10</maxWeakCount>
      <stageThreshold>-5.2850518375635147e-02</stageThreshold>
      <weakClassifiers>
        <_>
          <internalNodes>
            0 -1 168 2.5217618793249130e-02</internalNodes>
          <leafValues>
            6.0162603855133057e-01 -8.8888889551162720e-01</leafValues></_>
        <_>
          <internalNodes>
            0 -1 15 8.7111052125692368e-03</internalNodes>
          <leafValues>
            -3.8211962580680847e-01 7.6440399885177612e-01</leafValues></_>
        <_>
          <internalNodes>
            0 -1 70 1.5275433659553528e-02</internalNodes>
          <leafValues>
            -3.2394018769264221e-01 7.0708936452865601e-01</leafValues></_>
        <_>
          <internalNodes>
            0 -1 220 -2.6911623775959015e-02</internalNodes>
          <leafValues>
            8.5500317811965942e-01 -2.3650379478931427e-01</leafValues></_>
        <_>
          <internalNodes>
            0 -1 211 6.7050987854599953e-03</internalNodes>
          <leafValues>
            -3.5173004865646362e-01 6.2696456909179688e-01</leafValues></_>
        <_>
          <internalNodes>
            0 -1 101 -5.2313832566142082e-03</internalNodes>
          <leafValues>
            6.2881255149841309e-01 -4.2669361829757690e-01</leafValues></_>
        <_>
          <internalNodes>
            0 -1 91 -7.3948502540588379e-04</internalNodes>
          <leafValues>
            -5.3662353754043579e-01 4.7468382120132446e-01</leafValues></_>
        <_>
          <internalNodes>
            0 -1 52 -3.0968312174081802e-02</internalNodes>
          <leafValues>
            6.5709942579269409e-01 -3.9899957180023193e-01</leafValues></_>
        <_>
          <internalNodes>
            0 -1 81 -4.0668427944183350e-02</internalNodes>
          <leafValues>
            7.8722423315048218e-01 -3.0583930015563965e-01</leafValues></_>
        <_>
          <internalNodes>
            0 -1 153 1.2123741209506989e-02</internalNodes>
          <leafValues>
            2.9824900627136230e-01 -8.2452082633972168e-01</leafValues></_></weakClassifiers></_>
    <!-- stage 1 -->
    <_>
      <maxWeakCount>15</maxWeakCount>
      <stageThreshold>-4.1700860857963562e-01</stageThreshold>
      <weakClassifiers>
        <_>
          <internalNodes>
            0 -1 216 1.3924675062298775e-02</internalNodes>
          <leafValues>
            -6.0975611209869385e-02 8.0882352590560913e-01</leafValues></_>
        <_>
          <internalNodes>
            0 -1 165 2.4111855775117874e-02</internalNodes>
          <leafValues>
            -1.8362209200859070e-01 7.3299622535705566e-01</leafValues></_>
        <_>
          <internalNodes>
            0 -1 114 -1.1381005868315697e-02</internalNodes>
          <leafValues>
            5.3485202789306641e-01 -3.1326687335968018e-01</leafValues></_>
        <_>
          <internalNodes>
            0 -1 102 5.1873419433832169e-03</internalNodes>
          <leafValues>
            -2.4391143023967743e-01 7.5114649534225464e-01</leafValues></_>
        <_>
          <internalNodes>
            0 -1 92 9.7142141312360764e-03</internalNodes>
          <leafValues>
            -2.3163333535194397e-01 7.6655769348144531e-01</leafValues></_>
        <_>
          <internalNodes>
            0 -1 106 -1.8766397261060774e-04</internalNodes>
          <leafValues>
            -4.4657802581787109e-01 4.0790131688117981e-01</leafValues></_>
        <_>
          <internalNodes>
            0 -1 158 -8.6607988923788071e-03</internalNodes>
          <leafValues>
            5.6069523096084595e-01 -3.4191706776618958e-01</leafValues></_>
        <_>
          <internalNodes>
            0 -1 48 -5.7650793343782425e-02</internalNodes>
          <leafValues>
            -8.5869008302688599e-01 2.2050020098686218e-01</leafValues></_>
        <_>
          <internalNodes>
            0 -1 125 -4.2032601777464151e-04</internalNodes>
          <leafValues>
            -4.9861547350883484e-01 3.8346901535987854e-01</leafValues></_>
        <_>
          <internalNodes>
            0 -1 240 -3.4544779919087887e-03</internalNodes>
          <leafValues>
            -5.8942741155624390e-01 3.5864055156707764e-01</leafValues></_>
        <_>
          <internalNodes>
            0 -1 187 -8.8785949628800154e-05</internalNodes>
          <leafValues>
            -5.4873579740524292e-01 3.7283310294151306e-01</leafValues></_>
        <_>
          <internalNodes>
            0 -1 236 -3.2664274331182241e-03</internalNodes>
          <leafValues>
            6.5449810028076172e-01 -3.1297898292541504e-01</leafValues></_>
        <_>
          <internalNodes>
            0 -1 166 -3.4072540700435638e-02</internalNodes>
          <leafValues>
            8.5262185335159302e-01 -2.6760613918304443e-01</leafValues></_>
        <_>
          <internalNodes>
            0 -1 215 -7.1982678491622210e-04</internalNodes>
          <leafValues>
            -6.9311678409576416e-01 3.4655275940895081e-01</leafValues></_>
        <_>
          <internalNodes>
            0 -1 23 5.0400357693433762e-02</internalNodes>
          <leafValues>
            -3.1992262601852417e-01 8.1611579656600952e-01</leafValues></_></weakClassifiers></_>
    <!-- stage 2 -->
    <_>
      <maxWeakCount>14</maxWeakCount>
      <stageThreshold>-7.0838113315403461e-03</stageThreshold>
      <weakClassifiers>
        <_>
          <internalNodes>
            0 -1 53 -6.7971199750900269e-03</internalNodes>
          <leafValues>
            7.0329672098159790e-01 -2.3728813230991364e-01</leafValues></_>
        <_>
          <internalNodes>
            0 -1 12 5.8072637766599655e-03</internalNodes>
          <leafValues>
            -1.9743674993515015e-01 7.8025513887405396e-01</leafValues></_>
        <_>
          <internalNodes>
            0 -1 162 -2.0513392984867096e-02</internalNodes>
          <leafValues>
            6.9891136884689331e-01 -2.3983278870582581e-01</leafValues></_>
        <_>
          <internalNodes>
            0 -1 170 2.2512672003358603e-03</internalNodes>
          <leafValues>
            -4.1737386584281921e-01 5.0347292423248291e-01</leafValues></_>
        <_>
          <internalNodes>
            0 -1 93 6.9907256402075291e-03</internalNodes>
          <leafValues>
            -3.2107841968536377e-01 6.2250113487243652e-01</leafValues></_>
        <_>
          <internalNodes>
            0 -1 65 -1.1350933928042650e-03</internalNodes>
          <leafValues>
            5.3332668542861938e-01 -3.8721171021461487e-01</leafValues></_>
        <_>
          <internalNodes>
            0 -1 71 5.5427215993404388e-02</internalNodes>
          <leafValues>
            3.7275949120521545e-01 -5.2562844753265381e-01</leafValues></_>
        <_>
          <internalNodes>
            0 -1 130 2.7743439204641618e-05</internalNodes>
          <leafValues>
            -5.4883509874343872e-01 3.8781514763832092e-01</leafValues></_>
        <_>
          <internalNodes>
            0 -1 89 3.8521505892276764e-02</internalNodes>
          <leafValues>
            -2.0857720077037811e-01 8.4264469146728516e-01</leafValues></_>
        <_>
          <internalNodes>
            0 -1 173 1.2395469471812248e-02</internalNodes>
          <leafValues>
            -2.1105301380157471e-01 8.2844871282577515e-01</leafValues></_>
        <_>
          <internalNodes>
            0 -1 123 -1.0420010425150394e-02</internalNodes>
          <leafValues>
            -7.2270423173904419e-01 3.2002741098403931e-01</leafValues></_>
        <_>
          <internalNodes>
            0 -1 238 -2.3266284551937133e-04</internalNodes>
          <leafValues>
            -6.1322540044784546e-01 3.1903430819511414e-01</leafValues></_>
        <_>
          <internalNodes>
            0 -1 59 -1.5044966712594032e-03</internalNodes>
          <leafValues>
            8.6111903190612793e-01 -2.3645235598087311e-01</leafValues></_>
        <_>
          <internalNodes>
            0 -1 132 -1.2126116082072258e-02</internalNodes>
          <leafValues>
            -8.8503074645996094e-01 2.5093054771423340e-01</leafValues></_></weakClassifiers></_>
    <!-- stage 3 -->
    <_>
      <maxWeakCount>15</maxWeakCount>
      <stageThreshold>-4.1945293545722961e-01</stageThreshold>
      <weakClassifiers>
        <_>
          <internalNodes>
            0 -1 208 2.4023244157433510e-02</internalNodes>
          <leafValues>
            -4.9382716417312622e-02 7.8260868787765503e-01</leafValues></_>
        <_>
          <internalNodes>
            0 -1 161 7.9840114340186119e-03</internalNodes>
          <leafValues>
            -2.3738197982311249e-01 6.9916814565658569e-01</leafValues></_>
        <_>
          <internalNodes>
            0 -1 213 -7.6586083741858602e-04</internalNodes>
          <leafValues>
            -4.9017804861068726e-01 4.6464380621910095e-01</leafValues></_>
        <_>
          <internalNodes>
            0 -1 56 -4.9130110710393637e-05</internalNodes>
          <leafValues>
            -5.9822678565979004e-01 3.3833491802215576e-01</leafValues></_>
        <_>
          <internalNodes>
            0 -1 226 -3.8725795457139611e-04</internalNodes>
          <leafValues>
            -5.4952806234359741e-01 3.0094370245933533e-01</leafValues></_>
        <_>
          <internalNodes>
            0 -1 96 -5.5440218420699239e-04</internalNodes>
          <leafValues>
            -5.3803759813308716e-01 3.8089540600776672e-01</leafValues></_>
        <_>
          <internalNodes>
            0 -1 144 1.2189032509922981e-02</internalNodes>
          <leafValues>
            -3.3255207538604736e-01 6.2524479627609253e-01</leafValues></_>
        <_>
          <internalNodes>
            0 -1 27 -9.6568055450916290e-03</internalNodes>
          <leafValues>
            -7.1043306589126587e-01 3.2380196452140808e-01</leafValues></_>
        <_>
          <internalNodes>
            0 -1 124 -1.0668901726603508e-02</internalNodes>
          <leafValues>
            -9.1024172306060791e-01 1.5474884212017059e-01</leafValues></_>
        <_>
          <internalNodes>
            0 -1 121 2.2827796055935323e-04</internalNodes>
          <leafValues>
            3.8482004404067993e-01 -5.1178836822509766e-01</leafValues></_>
        <_>
          <internalNodes>
            0 -1 26 1.9956808537244797e-02</internalNodes>
          <leafValues>
            -2.7170610427856445e-01 7.6923179626464844e-01</leafValues></_>
        <_>
          <internalNodes>
            0 -1 35 2.0166181027889252e-02</internalNodes>
          <leafValues>
            -2.2268134355545044e-01 7.9282629489898682e-01</leafValues></_>
        <_>
          <internalNodes>
            0 -1 137 -2.6333671994507313e-03</internalNodes>
          <leafValues>
            -8.5520052909851074e-01 3.0701091885566711e-01</leafValues></_>
        <_>
          <internalNodes>
            0 -1 40 2.1094648167490959e-02</internalNodes>
          <leafValues>
            2.3158608376979828e-01 -7.5963288545608521e-01</leafValues></_>
        <_>
          <internalNodes>
            0 -1 111 2.5765490718185902e-03</internalNodes>
          <leafValues>
            -3.0115091800689697e-01 7.5402432680130005e-01</leafValues></_></weakClassifiers></_>
    <!-- stage 4 -->
    <_>
      <maxWeakCount>14</maxWeakCount>
      <stageThreshold>-2.2386988997459412e-01</stageThreshold>
      <weakClassifiers>
        <_>
          <internalNodes>
            0 -1 165 2.1450782194733620e-02</internalNodes>
          <leafValues>
            -3.0674846842885017e-02 7.6642334461212158e-01</leafValues></_>
        <_>
          <internalNodes>
            0 -1 196 1.4836739748716354e-02</internalNodes>
          <leafValues>
            -1.0202454775571823e-01 9.1705852746963501e-01</leafValues></_>
        <_>
          <internalNodes>
            0 -1 164 -1.2053791433572769e-03</internalNodes>
          <leafValues>
            -4.6815598011016846e-01 3.4056583046913147e-01</leafValues></_>
        <_>
          <internalNodes>
            0 -1 75 -2.8775705141015351e-04</internalNodes>
          <leafValues>
            -4.4891425967216492e-01 4.0368798375129700e-01</leafValues></_>
        <_>
          <internalNodes>
            0 -1 87 6.6918041557073593e-03</internalNodes>
          <leafValues>
            -2.3436911404132843e-01 8.4035742282867432e-01</leafValues></_>
        <_>
          <internalNodes>
            0 -1 9 1.5097146853804588e-02</internalNodes>
          <leafValues>
            -2.0133896172046661e-01 7.1304106712341309e-01</leafValues></_>
        <_>
          <internalNodes>
            0 -1 119 -2.4502936750650406e-02</internalNodes>
          <leafValues>
            7.9961323738098145e-01 -2.1554666757583618e-01</leafValues></_>
        <_>
          <internalNodes>
            0 -1 182 2.4923901073634624e-03</internalNodes>
          <leafValues>
            -1.8372443318367004e-01 8.1672042608261108e-01</leafValues></_>
        <_>
          <internalNodes>
            0 -1 154 4.5704580843448639e-03</internalNodes>
          <leafValues>
            -3.2096219062805176e-01 5.2772331237792969e-01</leafValues></_>
        <_>
          <internalNodes>
            0 -1 31 -3.9674807339906693e-03</internalNodes>
          <leafValues>
            -7.8950506448745728e-01 2.0922537147998810e-01</leafValues></_>
        <_>
          <internalNodes>
            0 -1 67 -3.4026993671432137e-04</internalNodes>
          <leafValues>
            -4.8778605461120605e-01 3.8404071331024170e-01</leafValues></_>
        <_>
          <internalNodes>
            0 -1 107 -2.3764488287270069e-04</internalNodes>
          <leafValues>
            -5.0220739841461182e-01 3.5921576619148254e-01</leafValues></_>
        <_>
          <internalNodes>
            0 -1 230 3.4086242318153381e-02</internalNodes>
          <leafValues>
            -2.2576254606246948e-01 8.4535670280456543e-01</leafValues></_>
        <_>
          <internalNodes>
            0 -1 2 -2.3954142816364765e-03</internalNodes>
          <leafValues>
            -5.9176635742187500e-01 4.0251955389976501e-01</leafValues></_></weakClassifiers></_>
    <!-- stage 5 -->
    <_>
      <maxWeakCount>16</maxWeakCount>
      <stageThreshold>-5.7151061296463013e-01</stageThreshold>
      <weakClassifiers>
        <_>
          <internalNodes>
            0 -1 62 4.2814709246158600e-02</internalNodes>
          <leafValues>
            4.6520146727561951e-01 -1.</leafValues></_>
        <_>
          <internalNodes>
            0 -1 183 1.2040473520755768e-02</internalNodes>
          <leafValues>
            -2.8648996353149414e-01 6.5637987852096558e-01</leafValues></_>
        <_>
          <internalNodes>
            0 -1 139 -2.5156396441161633e-03</internalNodes>
          <leafValues>
            -5.7679086923599243e-01 3.6617645621299744e-01</leafValues></_>
        <_>
          <internalNodes>
            0 -1 149 -1.6050279373303056e-03</internalNodes>
          <leafValues>
            2.9561129212379456e-01 -6.0706037282943726e-01</leafValues></_>
        <_>
          <internalNodes>
            0 -1 54 -1.2170109897851944e-02</internalNodes>
          <leafValues>
            5.6576615571975708e-01 -3.4265249967575073e-01</leafValues></_>
        <_>
          <internalNodes>
            0 -1 148 5.2578281611204147e-04</internalNodes>
          <leafValues>
            -4.7849562764167786e-01 4.2502829432487488e-01</leafValues></_>
        <_>
          <internalNodes>
            0 -1 181 3.1152139417827129e-03</internalNodes>
          <leafValues>
            -2.8630551695823669e-01 7.2109586000442505e-01</leafValues></_>
        <_>
          <internalNodes>
            0 -1 159 -2.8274960815906525e-02</internalNodes>
          <leafValues>
            7.3839062452316284e-01 -2.2391358017921448e-01</leafValues></_>
        <_>
          <internalNodes>
            0 -1 100 -3.1653807964175940e-03</internalNodes>
          <leafValues>
            7.0182806253433228e-01 -2.4499864876270294e-01</leafValues></_>
        <_>
          <internalNodes>
            0 -1 167 -1.4879971742630005e-02</internalNodes>
          <leafValues>
            -7.4962353706359863e-01 2.7968302369117737e-01</leafValues></_>
        <_>
          <internalNodes>
            0 -1 77 -1.7058498633559793e-04</internalNodes>
          <leafValues>
            -5.0435650348663330e-01 3.3667919039726257e-01</leafValues></_>
        <_>
          <internalNodes>
            0 -1 79 1.8944848328828812e-02</internalNodes>
          <leafValues>
            -3.3301842212677002e-01 6.0292017459869385e-01</leafValues></_>
        <_>
          <internalNodes>
            0 -1 176 6.4653600566089153e-04</internalNodes>
          <leafValues>
            -3.1386801600456238e-01 5.5537396669387817e-01</leafValues></_>
        <_>
          <internalNodes>
            0 -1 14 6.6710233688354492e-02</internalNodes>
          <leafValues>
            2.0106786489486694e-01 -1.</leafValues></_>
        <_>
          <internalNodes>
            0 -1 201 5.7678046869114041e-04</internalNodes>
          <leafValues>
            -3.7413769960403442e-01 5.2776020765304565e-01</leafValues></_>
        <_>
          <internalNodes>
            0 -1 20 2.5205358397215605e-03</internalNodes>
          <leafValues>
            2.6526370644569397e-01 -7.2149389982223511e-01</leafValues></_></weakClassifiers></_>
    <!-- stage 6 -->
    <_>
      <maxWeakCount>16</maxWeakCount>
      <stageThreshold>-6.1228726059198380e-02</stageThreshold>
      <weakClassifiers>
        <_>
          <internalNodes>
            0 -1 115 5.3683266043663025e-02</internalNodes>
          <leafValues>
            4.3999999761581421e-01 -8.3999997377395630e-01</leafValues></_>
        <_>
          <internalNodes>
            0 -1 151 2.6451963931322098e-03</internalNodes>
          <leafValues>
            -1.5754997730255127e-01 8.7702381610870361e-01</leafValues></_>
        <_>
          <internalNodes>
            0 -1 118 8.5649993270635605e-03</internalNodes>
          <leafValues>
            -1.7743809521198273e-01 7.7663087844848633e-01</leafValues></_>
        <_>
          <internalNodes>
            0 -1 194 -7.9484395682811737e-03</internalNodes>
          <leafValues>
            6.8437033891677856e-01 -1.8642924726009369e-01</leafValues></_>
        <_>
          <internalNodes>
            0 -1 33 8.4346305811777711e-05</internalNodes>
          <leafValues>
            3.3994975686073303e-01 -4.2825251817703247e-01</leafValues></_>
        <_>
          <internalNodes>
            0 -1 28 3.0771552119404078e-03</internalNodes>
          <leafValues>
            -3.0327418446540833e-01 5.3141891956329346e-01</leafValues></_>
        <_>
          <internalNodes>
            0 -1 233 -6.7911767400801182e-03</internalNodes>
          <leafValues>
            -7.8782004117965698e-01 1.9474573433399200e-01</leafValues></_>
        <_>
          <internalNodes>
            0 -1 109 -1.0482789366506040e-04</internalNodes>
          <leafValues>
            -5.3277885913848877e-01 3.1996077299118042e-01</leafValues></_>
        <_>
          <internalNodes>
            0 -1 7 -2.3825993761420250e-02</internalNodes>
          <leafValues>
            9.0991520881652832e-01 -1.9851197302341461e-01</leafValues></_>
        <_>
          <internalNodes>
            0 -1 231 -1.3707370497286320e-02</internalNodes>
          <leafValues>
            6.0031628608703613e-01 -2.8717255592346191e-01</leafValues></_>
        <_>
          <internalNodes>
            0 -1 72 -2.7241004863753915e-04</internalNodes>
          <leafValues>
            -5.6838268041610718e-01 3.0955746769905090e-01</leafValues></_>
        <_>
          <internalNodes>
            0 -1 85 -7.7565797255374491e-05</internalNodes>
          <leafValues>
            -4.4794347882270813e-01 3.7746077775955200e-01</leafValues></_>
        <_>
          <internalNodes>
            0 -1 145 -1.0586756980046630e-04</internalNodes>
          <leafValues>
            -5.1956140995025635e-01 3.6007723212242126e-01</leafValues></_>
        <_>
          <internalNodes>
            0 -1 189 2.4327514693140984e-03</internalNodes>
          <leafValues>
            -2.8597038984298706e-01 6.8606978654861450e-01</leafValues></_>
        <_>
          <internalNodes>
            0 -1 191 -5.5657030316069722e-05</internalNodes>
          <leafValues>
            -5.1026189327239990e-01 3.5418990254402161e-01</leafValues></_>
        <_>
          <internalNodes>
            0 -1 103 -4.7059752978384495e-04</internalNodes>
          <leafValues>
            3.7942853569984436e-01 -5.5930042266845703e-01</leafValues></_></weakClassifiers></_>
    <!-- stage 7 -->
    <_>
      <maxWeakCount>18</maxWeakCount>
      <stageThreshold>-3.5826972126960754e-01</stageThreshold>
      <weakClassifiers>
        <_>
          <internalNodes>
            0 -1 55 7.9478614032268524e-02</internalNodes>
          <leafValues>
            4.5985400676727295e-01 -1.</leafValues></_>
        <_>
          <internalNodes>
            0 -1 198 6.6747306846082211e-03</internalNodes>
          <leafValues>
            -2.1004015207290649e-01 7.4799197912216187e-01</leafValues></_>
        <_>
          <internalNodes>
            0 -1 82 -2.3078551748767495e-04</internalNodes>
          <leafValues>
            -5.3321051597595215e-01 3.2071819901466370e-01</leafValues></_>
        <_>
          <internalNodes>
            0 -1 108 -7.2110323235392570e-03</internalNodes>
          <leafValues>
            4.6808001399040222e-01 -3.6312091350555420e-01</leafValues></_>
        <_>
          <internalNodes>
            0 -1 202 -3.5368063254281878e-04</internalNodes>
          <leafValues>
            -5.3001475334167480e-01 3.3268469572067261e-01</leafValues></_>
        <_>
          <internalNodes>
            0 -1 18 6.7085837945342064e-03</internalNodes>
          <leafValues>
            2.6356536149978638e-01 -6.9245839118957520e-01</leafValues></_>
        <_>
          <internalNodes>
            0 -1 224 8.3719743415713310e-03</internalNodes>
          <leafValues>
            -2.8976613283157349e-01 6.1067235469818115e-01</leafValues></_>
        <_>
          <internalNodes>
            0 -1 212 3.3795596100389957e-03</internalNodes>
          <leafValues>
            -1.9502341747283936e-01 7.8882420063018799e-01</leafValues></_>
        <_>
          <internalNodes>
            0 -1 36 -7.1384191513061523e-02</internalNodes>
          <leafValues>
            -9.0829110145568848e-01 2.0763236284255981e-01</leafValues></_>
        <_>
          <internalNodes>
            0 -1 78 1.9629604648798704e-03</internalNodes>
          <leafValues>
            2.7043956518173218e-01 -5.2163672447204590e-01</leafValues></_>
        <_>
          <internalNodes>
            0 -1 199 -3.8545436837011948e-05</internalNodes>
          <leafValues>
            -5.1387405395507812e-01 2.9869246482849121e-01</leafValues></_>
        <_>
          <internalNodes>
            0 -1 128 -2.3082984262146056e-04</internalNodes>
          <leafValues>
            -5.0163942575454712e-01 3.2309064269065857e-01</leafValues></_>
        <_>
          <internalNodes>
            0 -1 200 -5.6021902710199356e-02</internalNodes>
          <leafValues>
            -7.0458447933197021e-01 2.1469640731811523e-01</leafValues></_>
        <_>
          <internalNodes>
            0 -1 190 7.4977544136345387e-04</internalNodes>
          <leafValues>
            -3.8040801882743835e-01 4.4228363037109375e-01</leafValues></_>
        <_>
          <internalNodes>
            0 -1 229 8.0847302451729774e-03</internalNodes>
          <leafValues>
            -2.3258782923221588e-01 6.7873376607894897e-01</leafValues></_>
        <_>
          <internalNodes>
            0 -1 73 -7.3591426014900208e-02</internalNodes>
          <leafValues>
            -8.8630008697509766e-01 2.0312193036079407e-01</leafValues></_>
        <_>
          <internalNodes>
            0 -1 192 5.1048807799816132e-03</internalNodes>
          <leafValues>
            -3.4490504860877991e-01 4.9319320917129517e-01</leafValues></_>
        <_>
          <internalNodes>
            0 -1 219 3.2182392897084355e-04</internalNodes>
          <leafValues>
            4.5623207092285156e-01 -4.0422460436820984e-01</leafValues></_></weakClassifiers></_>
    <!-- stage 8 -->
    <_>
      <maxWeakCount>14</maxWeakCount>
      <stageThreshold>8.7363317608833313e-02</stageThreshold>
      <weakClassifiers>
        <_>
          <internalNodes>
            0 -1 146 2.5248620659112930e-02</internalNodes>
          <leafValues>
            4.5588234066963196e-01 -8.5714286565780640e-01</leafValues></_>
        <_>
          <internalNodes>
            0 -1 15 2.7394827455282211e-02</internalNodes>
          <leafValues>
            -1.4428164064884186e-01 8.6972188949584961e-01</leafValues></_>
        <_>
          <internalNodes>
            0 -1 127 -2.7493917150422931e-04</internalNodes>
          <leafValues>
            -5.4645007848739624e-01 3.0845126509666443e-01</leafValues></_>
        <_>
          <internalNodes>
            0 -1 60 -1.0865103453397751e-02</internalNodes>
          <leafValues>
            1. -2.2846721112728119e-01</leafValues></_>
        <_>
          <internalNodes>
            0 -1 210 6.2574790790677071e-03</internalNodes>
          <leafValues>
            -2.8243806958198547e-01 5.2435970306396484e-01</leafValues></_>
        <_>
          <internalNodes>
            0 -1 1 8.0743216676637530e-04</internalNodes>
          <leafValues>
            3.2384744286537170e-01 -6.0088461637496948e-01</leafValues></_>
        <_>
          <internalNodes>
            0 -1 80 9.6612665802240372e-03</internalNodes>
          <leafValues>
            2.9279959201812744e-01 -5.8483040332794189e-01</leafValues></_>
        <_>
          <internalNodes>
            0 -1 156 6.5782299498096108e-04</internalNodes>
          <leafValues>
            -3.3468040823936462e-01 5.7429480552673340e-01</leafValues></_>
        <_>
          <internalNodes>
            0 -1 49 -4.1477862745523453e-02</internalNodes>
          <leafValues>
            8.7688982486724854e-01 -1.9288615882396698e-01</leafValues></_>
        <_>
          <internalNodes>
            0 -1 42 5.4582310840487480e-03</internalNodes>
          <leafValues>
            2.5313255190849304e-01 -6.9346261024475098e-01</leafValues></_>
        <_>
          <internalNodes>
            0 -1 157 -2.5267221033573151e-02</internalNodes>
          <leafValues>
            -6.5490686893463135e-01 2.5907644629478455e-01</leafValues></_>
        <_>
          <internalNodes>
            0 -1 147 5.7996464893221855e-03</internalNodes>
          <leafValues>
            -1.7826278507709503e-01 1.</leafValues></_>
        <_>
          <internalNodes>
            0 -1 11 1.2745857238769531e-01</internalNodes>
          <leafValues>
            1.9906039535999298e-01 -9.6382635831832886e-01</leafValues></_>
        <_>
          <internalNodes>
            0 -1 207 -3.1931424018694088e-05</internalNodes>
          <leafValues>
            -4.8568493127822876e-01 3.5082828998565674e-01</leafValues></_></weakClassifiers></_>
    <!-- stage 9 -->
    <_>
      <maxWeakCount>13</maxWeakCount>
      <stageThreshold>8.6570836603641510e-02</stageThreshold>
      <weakClassifiers>
        <_>
          <internalNodes>
            0 -1 152 -1.6031838953495026e-02</internalNodes>
          <leafValues>
            -7.9310345649719238e-01 4.5387452840805054e-01</leafValues></_>
        <_>
          <internalNodes>
            0 -1 97 -5.1517632527975366e-05</internalNodes>
          <leafValues>
            -4.1229626536369324e-01 4.0743526816368103e-01</leafValues></_>
        <_>
          <internalNodes>
            0 -1 222 -1.7841106280684471e-02</internalNodes>
          <leafValues>
            5.5996990203857422e-01 -3.5801267623901367e-01</leafValues></_>
        <_>
          <internalNodes>
            0 -1 193 -6.4666694961488247e-03</internalNodes>
          <leafValues>
            7.0140498876571655e-01 -2.5218352675437927e-01</leafValues></_>
        <_>
          <internalNodes>
            0 -1 143 -1.3488814234733582e-02</internalNodes>
          <leafValues>
            -7.9299265146255493e-01 1.8935564160346985e-01</leafValues></_>
        <_>
          <internalNodes>
            0 -1 39 1.3120693154633045e-02</internalNodes>
          <leafValues>
            -2.0354986190795898e-01 7.0514148473739624e-01</leafValues></_>
        <_>
          <internalNodes>
            0 -1 120 -1.8342796247452497e-03</internalNodes>
          <leafValues>
            7.1740221977233887e-01 -2.1203218400478363e-01</leafValues></_>
        <_>
          <internalNodes>
            0 -1 25 -1.4365930110216141e-02</internalNodes>
          <leafValues>
            -9.4629430770874023e-01 1.7005650699138641e-01</leafValues></_>
        <_>
          <internalNodes>
            0 -1 84 2.6322059333324432e-02</internalNodes>
          <leafValues>
            -2.2491365671157837e-01 7.9674619436264038e-01</leafValues></_>
        <_>
          <internalNodes>
            0 -1 171 -1.5832488134037703e-04</internalNodes>
          <leafValues>
            -5.1797246932983398e-01 3.7519374489784241e-01</leafValues></_>
        <_>
          <internalNodes>
            0 -1 169 -1.3978489674627781e-02</internalNodes>
          <leafValues>
            -1. 1.3856974244117737e-01</leafValues></_>
        <_>
          <internalNodes>
            0 -1 206 1.4985760208219290e-03</internalNodes>
          <leafValues>
            2.7342131733894348e-01 -5.1771885156631470e-01</leafValues></_>
        <_>
          <internalNodes>
            0 -1 179 -2.6569273322820663e-03</internalNodes>
          <leafValues>
            5.7633388042449951e-01 -2.7488681674003601e-01</leafValues></_></weakClassifiers></_>
    <!-- stage 10 -->
    <_>
      <maxWeakCount>8</maxWeakCount>
      <stageThreshold>-5.6044954061508179e-01</stageThreshold>
      <weakClassifiers>
        <_>
          <internalNodes>
            0 -1 41 -4.5853372663259506e-02</internalNodes>
          <leafValues>
            -3.4042552113533020e-01 6.4077669382095337e-01</leafValues></_>
        <_>
          <internalNodes>
            0 -1 19 1.1922709643840790e-02</internalNodes>
          <leafValues>
            -3.9534273743629456e-01 7.5833547115325928e-01</leafValues></_>
        <_>
          <internalNodes>
            0 -1 195 -2.6442345231771469e-02</internalNodes>
          <leafValues>
            1. -2.6815417408943176e-01</leafValues></_>
        <_>
          <internalNodes>
            0 -1 184 -1.6560013173148036e-03</internalNodes>
          <leafValues>
            8.1214195489883423e-01 -3.0851119756698608e-01</leafValues></_>
        <_>
          <internalNodes>
            0 -1 83 -1.7475687200203538e-03</internalNodes>
          <leafValues>
            8.7593251466751099e-01 -3.3970823884010315e-01</leafValues></_>
        <_>
          <internalNodes>
            0 -1 209 -3.7025210913270712e-03</internalNodes>
          <leafValues>
            -4.2505702376365662e-01 6.7056721448898315e-01</leafValues></_>
        <_>
          <internalNodes>
            0 -1 4 2.0705752831418067e-05</internalNodes>
          <leafValues>
            -4.7338199615478516e-01 8.4235155582427979e-01</leafValues></_>
        <_>
          <internalNodes>
            0 -1 223 -1.0668998584151268e-03</internalNodes>
          <leafValues>
            -3.7918755412101746e-01 7.8834563493728638e-01</leafValues></_></weakClassifiers></_>
    <!-- stage 11 -->
    <_>
      <maxWeakCount>1</maxWeakCount>
      <stageThreshold>9.0476191043853760e-01</stageThreshold>
      <weakClassifiers>
        <_>
          <internalNodes>
            0 -1 21 -1.6415536403656006e-01</internalNodes>
          <leafValues>
            -1. 9.0476191043853760e-01</leafValues></_></weakClassifiers></_>
    <!-- stage 12 -->
    <_>
      <maxWeakCount>17</maxWeakCount>
      <stageThreshold>7.6178476214408875e-02</stageThreshold>
      <weakClassifiers>
        <_>
          <internalNodes>
            0 -1 177 -2.7892410755157471e-02</internalNodes>
          <leafValues>
            -7.9310345649719238e-01 4.5387452840805054e-01</leafValues></_>
        <_>
          <internalNodes>
            0 -1 235 -4.7669960185885429e-03</internalNodes>
          <leafValues>
            5.5609768629074097e-01 -2.3087958991527557e-01</leafValues></_>
        <_>
          <internalNodes>
            0 -1 43 -3.3430200070142746e-02</internalNodes>
          <leafValues>
            6.4178287982940674e-01 -2.4534806609153748e-01</leafValues></_>
        <_>
          <internalNodes>
            0 -1 135 2.5311913341283798e-02</internalNodes>
          <leafValues>
            -3.4743517637252808e-01 5.0187629461288452e-01</leafValues></_>
        <_>
          <internalNodes>
            0 -1 105 1.4248963445425034e-02</internalNodes>
          <leafValues>
            -2.4006077647209167e-01 5.9758460521697998e-01</leafValues></_>
        <_>
          <internalNodes>
            0 -1 22 5.0111812015529722e-05</internalNodes>
          <leafValues>
            3.8987943530082703e-01 -3.7577199935913086e-01</leafValues></_>
        <_>
          <internalNodes>
            0 -1 57 2.9559293761849403e-03</internalNodes>
          <leafValues>
            -2.2780001163482666e-01 5.7639682292938232e-01</leafValues></_>
        <_>
          <internalNodes>
            0 -1 10 -3.6205016076564789e-03</internalNodes>
          <leafValues>
            -7.4533289670944214e-01 2.1508593857288361e-01</leafValues></_>
        <_>
          <internalNodes>
            0 -1 234 -8.0606935080140829e-04</internalNodes>
          <leafValues>
            -5.0075310468673706e-01 2.9461348056793213e-01</leafValues></_>
        <_>
          <internalNodes>
            0 -1 136 -1.9422609359025955e-02</internalNodes>
          <leafValues>
            -5.3282976150512695e-01 2.8868699073791504e-01</leafValues></_>
        <_>
          <internalNodes>
            0 -1 61 1.4167226850986481e-02</internalNodes>
          <leafValues>
            -2.6097363233566284e-01 6.6655707359313965e-01</leafValues></_>
        <_>
          <internalNodes>
            0 -1 58 -2.1094363182783127e-04</internalNodes>
          <leafValues>
            -4.7017583250999451e-01 3.4021726250648499e-01</leafValues></_>
        <_>
          <internalNodes>
            0 -1 64 7.9856463707983494e-04</internalNodes>
          <leafValues>
            -2.8154948353767395e-01 7.3671334981918335e-01</leafValues></_>
        <_>
          <internalNodes>
            0 -1 68 1.3457162305712700e-02</internalNodes>
          <leafValues>
            -1.7083315551280975e-01 7.2067475318908691e-01</leafValues></_>
        <_>
          <internalNodes>
            0 -1 142 -5.7869711890816689e-03</internalNodes>
          <leafValues>
            -8.9480787515640259e-01 1.9416889548301697e-01</leafValues></_>
        <_>
          <internalNodes>
            0 -1 217 -2.5212895125150681e-03</internalNodes>
          <leafValues>
            5.5455023050308228e-01 -2.6924875378608704e-01</leafValues></_>
        <_>
          <internalNodes>
            0 -1 74 -2.3178562521934509e-02</internalNodes>
          <leafValues>
            -8.0197888612747192e-01 1.9849032163619995e-01</leafValues></_></weakClassifiers></_>
    <!-- stage 13 -->
    <_>
      <maxWeakCount>5</maxWeakCount>
      <stageThreshold>-4.4280031323432922e-01</stageThreshold>
      <weakClassifiers>
        <_>
          <internalNodes>
            0 -1 185 -9.1331109404563904e-02</internalNodes>
          <leafValues>
            -4.8571428656578064e-01 7.7435898780822754e-01</leafValues></_>
        <_>
          <internalNodes>
            0 -1 37 6.8476102314889431e-03</internalNodes>
          <leafValues>
            6.8761426210403442e-01 -7.5119161605834961e-01</leafValues></_>
        <_>
          <internalNodes>
            0 -1 155 3.1586907804012299e-02</internalNodes>
          <leafValues>
            7.5689977407455444e-01 -7.3879766464233398e-01</leafValues></_>
        <_>
          <internalNodes>
            0 -1 0 -7.6776271453127265e-04</internalNodes>
          <leafValues>
            -5.6529182195663452e-01 9.2558372020721436e-01</leafValues></_>
        <_>
          <internalNodes>
            0 -1 126 -9.2263072729110718e-02</internalNodes>
          <leafValues>
            -6.5757560729980469e-01 7.0319336652755737e-01</leafValues></_></weakClassifiers></_>
    <!-- stage 14 -->
    <_>
      <maxWeakCount>13</maxWeakCount>
      <stageThreshold>-4.9716943502426147e-01</stageThreshold>
      <weakClassifiers>
        <_>
          <internalNodes>
            0 -1 140 6.0370802879333496e-02</internalNodes>
          <leafValues>
            5.2343750000000000e-01 -7.7272725105285645e-01</leafValues></_>
        <_>
          <internalNodes>
            0 -1 160 1.2079991400241852e-02</internalNodes>
          <leafValues>
            -3.0453327298164368e-01 6.9271427392959595e-01</leafValues></_>
        <_>
          <internalNodes>
            0 -1 188 9.5195905305445194e-04</internalNodes>
          <leafValues>
            -2.6302301883697510e-01 5.9220910072326660e-01</leafValues></_>
        <_>
          <internalNodes>
            0 -1 138 8.5365245467983186e-05</internalNodes>
          <leafValues>
            3.2575950026512146e-01 -5.1514333486557007e-01</leafValues></_>
        <_>
          <internalNodes>
            0 -1 225 1.6281325370073318e-03</internalNodes>
          <leafValues>
            3.0126640200614929e-01 -6.6377598047256470e-01</leafValues></_>
        <_>
          <internalNodes>
            0 -1 205 -3.7075881846249104e-03</internalNodes>
          <leafValues>
            8.0965077877044678e-01 -2.7334323525428772e-01</leafValues></_>
        <_>
          <internalNodes>
            0 -1 174 7.3017124086618423e-03</internalNodes>
          <leafValues>
            3.0870315432548523e-01 -6.2804293632507324e-01</leafValues></_>
        <_>
          <internalNodes>
            0 -1 104 7.5639598071575165e-03</internalNodes>
          <leafValues>
            -2.4287480115890503e-01 8.5894131660461426e-01</leafValues></_>
        <_>
          <internalNodes>
            0 -1 47 2.5413993746042252e-02</internalNodes>
          <leafValues>
            -2.5036370754241943e-01 8.3984094858169556e-01</leafValues></_>
        <_>
          <internalNodes>
            0 -1 30 -4.2015803046524525e-03</internalNodes>
          <leafValues>
            8.4334367513656616e-01 -1.6149656474590302e-01</leafValues></_>
        <_>
          <internalNodes>
            0 -1 66 -2.4498985148966312e-03</internalNodes>
          <leafValues>
            8.4426426887512207e-01 -1.4810802042484283e-01</leafValues></_>
        <_>
          <internalNodes>
            0 -1 88 -7.9750940203666687e-03</internalNodes>
          <leafValues>
            6.0209208726882935e-01 -2.7491870522499084e-01</leafValues></_>
        <_>
          <internalNodes>
            0 -1 204 7.0191355189308524e-04</internalNodes>
          <leafValues>
            -2.7976584434509277e-01 5.8679622411727905e-01</leafValues></_></weakClassifiers></_>
    <!-- stage 15 -->
    <_>
      <maxWeakCount>2</maxWeakCount>
      <stageThreshold>9.5238097012042999e-02</stageThreshold>
      <weakClassifiers>
        <_>
          <internalNodes>
            0 -1 197 -1.8341947346925735e-02</internalNodes>
          <leafValues>
            -9.0476191043853760e-01 1.</leafValues></_>
        <_>
          <internalNodes>
            0 -1 51 -7.6015740633010864e-02</internalNodes>
          <leafValues>
            -8.8033378124237061e-01 1.</leafValues></_></weakClassifiers></_>
    <!-- stage 16 -->
    <_>
      <maxWeakCount>13</maxWeakCount>
      <stageThreshold>2.3318670690059662e-02</stageThreshold>
      <weakClassifiers>
        <_>
          <internalNodes>
            0 -1 203 -1.7098882235586643e-03</internalNodes>
          <leafValues>
            9.0804594755172729e-01 9.8591551184654236e-02</leafValues></_>
        <_>
          <internalNodes>
            0 -1 163 -1.7597261816263199e-02</internalNodes>
          <leafValues>
            9.0611678361892700e-01 -9.1109536588191986e-02</leafValues></_>
        <_>
          <internalNodes>
            0 -1 38 4.3395992368459702e-02</internalNodes>
          <leafValues>
            -1.5612214803695679e-01 8.6331069469451904e-01</leafValues></_>
        <_>
          <internalNodes>
            0 -1 98 1.8008111510425806e-04</internalNodes>
          <leafValues>
            3.2520008087158203e-01 -5.2861034870147705e-01</leafValues></_>
        <_>
          <internalNodes>
            0 -1 178 1.9388557411730289e-03</internalNodes>
          <leafValues>
            -2.0522370934486389e-01 8.6142212152481079e-01</leafValues></_>
        <_>
          <internalNodes>
            0 -1 221 4.6165395178832114e-04</internalNodes>
          <leafValues>
            5.6426262855529785e-01 -2.8547847270965576e-01</leafValues></_>
        <_>
          <internalNodes>
            0 -1 90 -6.1206126702018082e-05</internalNodes>
          <leafValues>
            -3.4633502364158630e-01 5.1805245876312256e-01</leafValues></_>
        <_>
          <internalNodes>
            0 -1 6 1.0172515176236629e-03</internalNodes>
          <leafValues>
            -3.9395821094512939e-01 5.0668251514434814e-01</leafValues></_>
        <_>
          <internalNodes>
            0 -1 95 4.7055268660187721e-03</internalNodes>
          <leafValues>
            -2.2150982916355133e-01 8.9694112539291382e-01</leafValues></_>
        <_>
          <internalNodes>
            0 -1 86 3.4355008974671364e-03</internalNodes>
          <leafValues>
            3.9733678102493286e-01 -4.9960809946060181e-01</leafValues></_>
        <_>
          <internalNodes>
            0 -1 69 2.0465620327740908e-03</internalNodes>
          <leafValues>
            -2.9703697562217712e-01 7.9389023780822754e-01</leafValues></_>
        <_>
          <internalNodes>
            0 -1 3 -1.2411125935614109e-02</internalNodes>
          <leafValues>
            9.2547535896301270e-01 -1.4632271230220795e-01</leafValues></_>
        <_>
          <internalNodes>
            0 -1 116 -1.1528249830007553e-02</internalNodes>
          <leafValues>
            -3.6884170770645142e-01 5.1555877923965454e-01</leafValues></_></weakClassifiers></_>
    <!-- stage 17 -->
    <_>
      <maxWeakCount>2</maxWeakCount>
      <stageThreshold>1.9801979884505272e-02</stageThreshold>
      <weakClassifiers>
        <_>
          <internalNodes>
            0 -1 76 -1.2705208361148834e-01</internalNodes>
          <leafValues>
            -9.8019802570343018e-01 1.</leafValues></_>
        <_>
          <internalNodes>
            0 -1 63 -1.1247891187667847e-01</internalNodes>
          <leafValues>
            -9.6153843402862549e-01 1.</leafValues></_></weakClassifiers></_>
    <!-- stage 18 -->
    <_>
      <maxWeakCount>9</maxWeakCount>
      <stageThreshold>8.0331109464168549e-02</stageThreshold>
      <weakClassifiers>
        <_>
          <internalNodes>
            0 -1 133 4.2782737873494625e-03</internalNodes>
          <leafValues>
            -1.5107913315296173e-01 7.5155282020568848e-01</leafValues></_>
        <_>
          <internalNodes>
            0 -1 13 -4.6104226261377335e-02</internalNodes>
          <leafValues>
            -5.5836790800094604e-01 5.7685858011245728e-01</leafValues></_>
        <_>
          <internalNodes>
            0 -1 180 -9.5352419884875417e-04</internalNodes>
          <leafValues>
            1. -2.7685934305191040e-01</leafValues></_>
        <_>
          <internalNodes>
            0 -1 227 -4.7314251423813403e-04</internalNodes>
          <leafValues>
            -4.5707669854164124e-01 5.6730037927627563e-01</leafValues></_>
        <_>
          <internalNodes>
            0 -1 110 1.9754994660615921e-02</internalNodes>
          <leafValues>
            3.5529547929763794e-01 -7.8156757354736328e-01</leafValues></_>
        <_>
          <internalNodes>
            0 -1 214 -1.0537081107031554e-04</internalNodes>
          <leafValues>
            -4.1695192456245422e-01 7.6069265604019165e-01</leafValues></_>
        <_>
          <internalNodes>
            0 -1 8 -8.6115589365363121e-03</internalNodes>
          <leafValues>
            -8.2590097188949585e-01 3.9623624086380005e-01</leafValues></_>
        <_>
          <internalNodes>
            0 -1 218 -3.6060184356756508e-04</internalNodes>
          <leafValues>
            -4.2346826195716858e-01 7.2778749465942383e-01</leafValues></_>
        <_>
          <internalNodes>
            0 -1 134 -1.0196206858381629e-03</internalNodes>
          <leafValues>
            9.4804435968399048e-01 -3.1276980042457581e-01</leafValues></_></weakClassifiers></_>
    <!-- stage 19 -->
    <_>
      <maxWeakCount>10</maxWeakCount>
      <stageThreshold>-6.1483675241470337e-01</stageThreshold>
      <weakClassifiers>
        <_>
          <internalNodes>
            0 -1 113 -1.6661283373832703e-01</internalNodes>
          <leafValues>
            -1. 4.8148149251937866e-01</leafValues></_>
        <_>
          <internalNodes>
            0 -1 175 2.3733046837151051e-03</internalNodes>
          <leafValues>
            -2.4689941108226776e-01 8.4570062160491943e-01</leafValues></_>
        <_>
          <internalNodes>
            0 -1 228 -5.8000404387712479e-03</internalNodes>
          <leafValues>
            9.0444689989089966e-01 -3.2530561089515686e-01</leafValues></_>
        <_>
          <internalNodes>
            0 -1 24 1.2157019227743149e-04</internalNodes>
          <leafValues>
            6.4352601766586304e-01 -3.2884117960929871e-01</leafValues></_>
        <_>
          <internalNodes>
            0 -1 45 -3.5207644104957581e-02</internalNodes>
          <leafValues>
            -6.4166307449340820e-01 4.0201485157012939e-01</leafValues></_>
        <_>
          <internalNodes>
            0 -1 186 7.1797454729676247e-03</internalNodes>
          <leafValues>
            -3.8670411705970764e-01 7.4481087923049927e-01</leafValues></_>
        <_>
          <internalNodes>
            0 -1 122 -6.0740020126104355e-02</internalNodes>
          <leafValues>
            -9.8390495777130127e-01 2.5876209139823914e-01</leafValues></_>
        <_>
          <internalNodes>
            0 -1 99 -1.1431670188903809e-01</internalNodes>
          <leafValues>
            -7.3165744543075562e-01 2.8335511684417725e-01</leafValues></_>
        <_>
          <internalNodes>
            0 -1 44 -2.5658498634584248e-04</internalNodes>
          <leafValues>
            -5.2875494956970215e-01 4.8295795917510986e-01</leafValues></_>
        <_>
          <internalNodes>
            0 -1 29 3.1309813493862748e-04</internalNodes>
          <leafValues>
            5.9890419244766235e-01 -4.1001960635185242e-01</leafValues></_></weakClassifiers></_>
    <!-- stage 20 -->
    <_>
      <maxWeakCount>1</maxWeakCount>
      <stageThreshold>1.</stageThreshold>
      <weakClassifiers>
        <_>
          <internalNodes>
            0 -1 237 4.5188441872596741e-03</internalNodes>
          <leafValues>
            1. -1.</leafValues></_></weakClassifiers></_>
    <!-- stage 21 -->
    <_>
      <maxWeakCount>5</maxWeakCount>
      <stageThreshold>7.6321692904457450e-04</stageThreshold>
      <weakClassifiers>
        <_>
          <internalNodes>
            0 -1 17 -1.0088689625263214e-02</internalNodes>
          <leafValues>
            -7.1794873476028442e-01 7.0270270109176636e-01</leafValues></_>
        <_>
          <internalNodes>
            0 -1 117 8.3976367022842169e-04</internalNodes>
          <leafValues>
            -4.6936252713203430e-01 1.</leafValues></_>
        <_>
          <internalNodes>
            0 -1 34 -3.3759477082639933e-04</internalNodes>
          <leafValues>
            -5.2422779798507690e-01 9.3096601963043213e-01</leafValues></_>
        <_>
          <internalNodes>
            0 -1 232 3.2621212303638458e-03</internalNodes>
          <leafValues>
            8.4111630916595459e-01 -6.4064508676528931e-01</leafValues></_>
        <_>
          <internalNodes>
            0 -1 112 -3.1295530498027802e-03</internalNodes>
          <leafValues>
            -4.7005373239517212e-01 9.3229591846466064e-01</leafValues></_></weakClassifiers></_>
    <!-- stage 22 -->
    <_>
      <maxWeakCount>5</maxWeakCount>
      <stageThreshold>-1.9991050660610199e-01</stageThreshold>
      <weakClassifiers>
        <_>
          <internalNodes>
            0 -1 131 -4.0461428463459015e-02</internalNodes>
          <leafValues>
            -3.2374101877212524e-01 9.0062111616134644e-01</leafValues></_>
        <_>
          <internalNodes>
            0 -1 239 1.4569421764463186e-03</internalNodes>
          <leafValues>
            7.9233527183532715e-01 -4.6553650498390198e-01</leafValues></_>
        <_>
          <internalNodes>
            0 -1 5 -1.1778699699789286e-03</internalNodes>
          <leafValues>
            -4.6352270245552063e-01 8.9157503843307495e-01</leafValues></_>
        <_>
          <internalNodes>
            0 -1 141 -9.7260445356369019e-02</internalNodes>
          <leafValues>
            -8.3697712421417236e-01 5.8234304189682007e-01</leafValues></_>
        <_>
          <internalNodes>
            0 -1 32 -2.0592701621353626e-03</internalNodes>
          <leafValues>
            -8.6791247129440308e-01 6.6550469398498535e-01</leafValues></_></weakClassifiers></_>
    <!-- stage 23 -->
    <_>
      <maxWeakCount>5</maxWeakCount>
      <stageThreshold>8.5727822780609131e-01</stageThreshold>
      <weakClassifiers>
        <_>
          <internalNodes>
            0 -1 94 8.5222423076629639e-03</internalNodes>
          <leafValues>
            8.7793427705764771e-01 -1.</leafValues></_>
        <_>
          <internalNodes>
            0 -1 172 -5.8120544999837875e-03</internalNodes>
          <leafValues>
            -8.0417305231094360e-01 7.0400655269622803e-01</leafValues></_>
        <_>
          <internalNodes>
            0 -1 129 -2.4701352231204510e-03</internalNodes>
          <leafValues>
            -5.3715503215789795e-01 9.5931071043014526e-01</leafValues></_>
        <_>
          <internalNodes>
            0 -1 150 -7.4580371379852295e-02</internalNodes>
          <leafValues>
            -9.3148577213287354e-01 5.6879657506942749e-01</leafValues></_>
        <_>
          <internalNodes>
            0 -1 50 4.0137115865945816e-03</internalNodes>
          <leafValues>
            7.5187546014785767e-01 -6.0382813215255737e-01</leafValues></_></weakClassifiers></_>
    <!-- stage 24 -->
    <_>
      <maxWeakCount>2</maxWeakCount>
      <stageThreshold>1.6513761878013611e-01</stageThreshold>
      <weakClassifiers>
        <_>
          <internalNodes>
            0 -1 16 -2.3398002609610558e-02</internalNodes>
          <leafValues>
            -8.3486241102218628e-01 1.</leafValues></_>
        <_>
          <internalNodes>
            0 -1 46 1.5381506644189358e-02</internalNodes>
          <leafValues>
            1. -8.0145931243896484e-01</leafValues></_></weakClassifiers></_></stages>
  <features>
    <_>
      <rects>
        <_>
          0 1 2 3 -1.</_>
        <_>
          0 2 2 1 3.</_></rects>
      <tilted>0</tilted></_>
    <_>
      <rects>
        <_>
          0 2 2 3 -1.</_>
        <_>
          0 3 2 1 3.</_></rects>
      <tilted>0</tilted></_>
    <_>
      <rects>
        <_>
          0 2 5 3 -1.</_>
        <_>
          0 3 5 1 3.</_></rects>
      <tilted>0</tilted></_>
    <_>
      <rects>
        <_>
          0 2 18 4 -1.</_>
        <_>
          0 4 18 2 2.</_></rects>
      <tilted>0</tilted></_>
    <_>
      <rects>
        <_>
          0 3 3 8 -1.</_>
        <_>
          1 3 1 8 3.</_></rects>
      <tilted>0</tilted></_>
    <_>
      <rects>
        <_>
          0 4 1 6 -1.</_>
        <_>
          0 7 1 3 2.</_></rects>
      <tilted>0</tilted></_>
    <_>
      <rects>
        <_>
          0 5 6 4 -1.</_>
        <_>
          0 5 3 2 2.</_>
        <_>
          3 7 3 2 2.</_></rects>
      <tilted>0</tilted></_>
    <_>
      <rects>
        <_>
          0 6 8 3 -1.</_>
        <_>
          4 6 4 3 2.</_></rects>
      <tilted>0</tilted></_>
    <_>
      <rects>
        <_>
          0 7 1 9 -1.</_>
        <_>
          0 10 1 3 3.</_></rects>
      <tilted>0</tilted></_>
    <_>
      <rects>
        <_>
          0 7 9 1 -1.</_>
        <_>
          3 7 3 1 3.</_></rects>
      <tilted>0</tilted></_>
    <_>
      <rects>
        <_>
          0 7 4 3 -1.</_>
        <_>
          0 8 4 1 3.</_></rects>
      <tilted>0</tilted></_>
    <_>
      <rects>
        <_>
          0 7 12 11 -1.</_>
        <_>
          6 7 6 11 2.</_></rects>
      <tilted>0</tilted></_>
    <_>
      <rects>
        <_>
          0 8 2 8 -1.</_>
        <_>
          1 8 1 8 2.</_></rects>
      <tilted>0</tilted></_>
    <_>
      <rects>
        <_>
          0 8 16 12 -1.</_>
        <_>
          0 8 8 6 2.</_>
        <_>
          8 14 8 6 2.</_></rects>
      <tilted>0</tilted></_>
    <_>
      <rects>
        <_>
          0 8 18 6 -1.</_>
        <_>
          0 10 18 2 3.</_></rects>
      <tilted>0</tilted></_>
    <_>
      <rects>
        <_>
          0 9 6 3 -1.</_>
        <_>
          2 9 2 3 3.</_></rects>
      <tilted>0</tilted></_>
    <_>
      <rects>
        <_>
          0 9 16 1 -1.</_>
        <_>
          8 9 8 1 2.</_></rects>
      <tilted>0</tilted></_>
    <_>
      <rects>
        <_>
          0 9 10 3 -1.</_>
        <_>
          0 10 10 1 3.</_></rects>
      <tilted>0</tilted></_>
    <_>
      <rects>
        <_>
          0 10 10 2 -1.</_>
        <_>
          0 11 10 1 2.</_></rects>
      <tilted>0</tilted></_>
    <_>
      <rects>
        <_>
          0 12 15 7 -1.</_>
        <_>
          5 12 5 7 3.</_></rects>
      <tilted>0</tilted></_>
    <_>
      <rects>
        <_>
          0 18 6 2 -1.</_>
        <_>
          0 18 3 1 2.</_>
        <_>
          3 19 3 1 2.</_></rects>
      <tilted>0</tilted></_>
    <_>
      <rects>
        <_>
          1 0 10 13 -1.</_>
        <_>
          6 0 5 13 2.</_></rects>
      <tilted>0</tilted></_>
    <_>
      <rects>
        <_>
          1 1 2 4 -1.</_>
        <_>
          1 1 1 2 2.</_>
        <_>
          2 3 1 2 2.</_></rects>
      <tilted>0</tilted></_>
    <_>
      <rects>
        <_>
          1 2 9 7 -1.</_>
        <_>
          4 2 3 7 3.</_></rects>
      <tilted>0</tilted></_>
    <_>
      <rects>
        <_>
          1 4 1 6 -1.</_>
        <_>
          1 7 1 3 2.</_></rects>
      <tilted>0</tilted></_>
    <_>
      <rects>
        <_>
          1 4 15 3 -1.</_>
        <_>
          1 5 15 1 3.</_></rects>
      <tilted>0</tilted></_>
    <_>
      <rects>
        <_>
          1 5 4 12 -1.</_>
        <_>
          1 5 2 6 2.</_>
        <_>
          3 11 2 6 2.</_></rects>
      <tilted>0</tilted></_>
    <_>
      <rects>
        <_>
          1 5 16 3 -1.</_>
        <_>
          1 6 16 1 3.</_></rects>
      <tilted>0</tilted></_>
    <_>
      <rects>
        <_>
          1 7 6 1 -1.</_>
        <_>
          3 7 2 1 3.</_></rects>
      <tilted>0</tilted></_>
    <_>
      <rects>
        <_>
          1 7 2 3 -1.</_>
        <_>
          1 8 2 1 3.</_></rects>
      <tilted>0</tilted></_>
    <_>
      <rects>
        <_>
          1 10 2 6 -1.</_>
        <_>
          1 10 1 3 2.</_>
        <_>
          2 13 1 3 2.</_></rects>
      <tilted>0</tilted></_>
    <_>
      <rects>
        <_>
          1 10 9 3 -1.</_>
        <_>
          1 11 9 1 3.</_></rects>
      <tilted>0</tilted></_>
    <_>
      <rects>
        <_>
          1 14 1 3 -1.</_>
        <_>
          1 15 1 1 3.</_></rects>
      <tilted>0</tilted></_>
    <_>
      <rects>
        <_>
          1 17 2 2 -1.</_>
        <_>
          1 17 1 1 2.</_>
        <_>
          2 18 1 1 2.</_></rects>
      <tilted>0</tilted></_>
    <_>
      <rects>
        <_>
          1 18 2 2 -1.</_>
        <_>
          2 18 1 2 2.</_></rects>
      <tilted>0</tilted></_>
    <_>
      <rects>
        <_>
          2 2 5 6 -1.</_>
        <_>
          2 5 5 3 2.</_></rects>
      <tilted>0</tilted></_>
    <_>
      <rects>
        <_>
          2 2 9 8 -1.</_>
        <_>
          2 6 9 4 2.</_></rects>
      <tilted>0</tilted></_>
    <_>
      <rects>
        <_>
          2 3 4 1 -1.</_>
        <_>
          4 3 2 1 2.</_></rects>
      <tilted>0</tilted></_>
    <_>
      <rects>
        <_>
          2 4 18 1 -1.</_>
        <_>
          8 4 6 1 3.</_></rects>
      <tilted>0</tilted></_>
    <_>
      <rects>
        <_>
          2 6 6 2 -1.</_>
        <_>
          5 6 3 2 2.</_></rects>
      <tilted>0</tilted></_>
    <_>
      <rects>
        <_>
          2 6 15 6 -1.</_>
        <_>
          2 8 15 2 3.</_></rects>
      <tilted>0</tilted></_>
    <_>
      <rects>
        <_>
          2 7 18 3 -1.</_>
        <_>
          11 7 9 3 2.</_></rects>
      <tilted>0</tilted></_>
    <_>
      <rects>
        <_>
          2 9 7 2 -1.</_>
        <_>
          2 10 7 1 2.</_></rects>
      <tilted>0</tilted></_>
    <_>
      <rects>
        <_>
          2 10 10 8 -1.</_>
        <_>
          2 14 10 4 2.</_></rects>
      <tilted>0</tilted></_>
    <_>
      <rects>
        <_>
          2 11 2 3 -1.</_>
        <_>
          2 12 2 1 3.</_></rects>
      <tilted>0</tilted></_>
    <_>
      <rects>
        <_>
          2 11 12 7 -1.</_>
        <_>
          6 11 4 7 3.</_></rects>
      <tilted>0</tilted></_>
    <_>
      <rects>
        <_>
          2 12 11 3 -1.</_>
        <_>
          2 13 11 1 3.</_></rects>
      <tilted>0</tilted></_>
    <_>
      <rects>
        <_>
          2 13 8 6 -1.</_>
        <_>
          2 13 4 3 2.</_>
        <_>
          6 16 4 3 2.</_></rects>
      <tilted>0</tilted></_>
    <_>
      <rects>
        <_>
          2 14 15 4 -1.</_>
        <_>
          7 14 5 4 3.</_></rects>
      <tilted>0</tilted></_>
    <_>
      <rects>
        <_>
          2 15 13 4 -1.</_>
        <_>
          2 17 13 2 2.</_></rects>
      <tilted>0</tilted></_>
    <_>
      <rects>
        <_>
          2 16 15 3 -1.</_>
        <_>
          2 17 15 1 3.</_></rects>
      <tilted>0</tilted></_>
    <_>
      <rects>
        <_>
          3 0 6 14 -1.</_>
        <_>
          5 0 2 14 3.</_></rects>
      <tilted>0</tilted></_>
    <_>
      <rects>
        <_>
          3 1 6 14 -1.</_>
        <_>
          3 1 3 7 2.</_>
        <_>
          6 8 3 7 2.</_></rects>
      <tilted>0</tilted></_>
    <_>
      <rects>
        <_>
          3 4 6 6 -1.</_>
        <_>
          3 4 3 3 2.</_>
        <_>
          6 7 3 3 2.</_></rects>
      <tilted>0</tilted></_>
    <_>
      <rects>
        <_>
          3 5 4 6 -1.</_>
        <_>
          3 5 2 3 2.</_>
        <_>
          5 8 2 3 2.</_></rects>
      <tilted>0</tilted></_>
    <_>
      <rects>
        <_>
          3 5 14 9 -1.</_>
        <_>
          3 8 14 3 3.</_></rects>
      <tilted>0</tilted></_>
    <_>
      <rects>
        <_>
          3 6 2 1 -1.</_>
        <_>
          4 6 1 1 2.</_></rects>
      <tilted>0</tilted></_>
    <_>
      <rects>
        <_>
          3 6 2 3 -1.</_>
        <_>
          4 6 1 3 2.</_></rects>
      <tilted>0</tilted></_>
    <_>
      <rects>
        <_>
          3 7 3 1 -1.</_>
        <_>
          4 7 1 1 3.</_></rects>
      <tilted>0</tilted></_>
    <_>
      <rects>
        <_>
          3 7 2 2 -1.</_>
        <_>
          3 7 1 1 2.</_>
        <_>
          4 8 1 1 2.</_></rects>
      <tilted>0</tilted></_>
    <_>
      <rects>
        <_>
          3 7 1 6 -1.</_>
        <_>
          3 10 1 3 2.</_></rects>
      <tilted>0</tilted></_>
    <_>
      <rects>
        <_>
          3 7 2 9 -1.</_>
        <_>
          3 10 2 3 3.</_></rects>
      <tilted>0</tilted></_>
    <_>
      <rects>
        <_>
          3 7 11 6 -1.</_>
        <_>
          3 10 11 3 2.</_></rects>
      <tilted>0</tilted></_>
    <_>
      <rects>
        <_>
          3 8 12 6 -1.</_>
        <_>
          7 8 4 6 3.</_></rects>
      <tilted>0</tilted></_>
    <_>
      <rects>
        <_>
          3 10 2 1 -1.</_>
        <_>
          4 10 1 1 2.</_></rects>
      <tilted>0</tilted></_>
    <_>
      <rects>
        <_>
          3 10 2 10 -1.</_>
        <_>
          3 10 1 5 2.</_>
        <_>
          4 15 1 5 2.</_></rects>
      <tilted>0</tilted></_>
    <_>
      <rects>
        <_>
          3 10 4 2 -1.</_>
        <_>
          3 10 2 1 2.</_>
        <_>
          5 11 2 1 2.</_></rects>
      <tilted>0</tilted></_>
    <_>
      <rects>
        <_>
          3 11 3 3 -1.</_>
        <_>
          3 12 3 1 3.</_></rects>
      <tilted>0</tilted></_>
    <_>
      <rects>
        <_>
          3 13 11 4 -1.</_>
        <_>
          3 15 11 2 2.</_></rects>
      <tilted>0</tilted></_>
    <_>
      <rects>
        <_>
          3 14 4 4 -1.</_>
        <_>
          3 14 2 2 2.</_>
        <_>
          5 16 2 2 2.</_></rects>
      <tilted>0</tilted></_>
    <_>
      <rects>
        <_>
          3 14 10 4 -1.</_>
        <_>
          3 14 5 2 2.</_>
        <_>
          8 16 5 2 2.</_></rects>
      <tilted>0</tilted></_>
    <_>
      <rects>
        <_>
          4 3 16 16 -1.</_>
        <_>
          4 3 8 8 2.</_>
        <_>
          12 11 8 8 2.</_></rects>
      <tilted>0</tilted></_>
    <_>
      <rects>
        <_>
          4 7 3 1 -1.</_>
        <_>
          5 7 1 1 3.</_></rects>
      <tilted>0</tilted></_>
    <_>
      <rects>
        <_>
          4 7 12 9 -1.</_>
        <_>
          4 10 12 3 3.</_></rects>
      <tilted>0</tilted></_>
    <_>
      <rects>
        <_>
          4 8 7 6 -1.</_>
        <_>
          4 10 7 2 3.</_></rects>
      <tilted>0</tilted></_>
    <_>
      <rects>
        <_>
          4 10 3 6 -1.</_>
        <_>
          4 12 3 2 3.</_></rects>
      <tilted>0</tilted></_>
    <_>
      <rects>
        <_>
          4 10 12 6 -1.</_>
        <_>
          8 10 4 6 3.</_></rects>
      <tilted>0</tilted></_>
    <_>
      <rects>
        <_>
          4 12 3 3 -1.</_>
        <_>
          4 13 3 1 3.</_></rects>
      <tilted>0</tilted></_>
    <_>
      <rects>
        <_>
          4 14 3 6 -1.</_>
        <_>
          5 14 1 6 3.</_></rects>
      <tilted>0</tilted></_>
    <_>
      <rects>
        <_>
          5 0 1 12 -1.</_>
        <_>
          5 4 1 4 3.</_></rects>
      <tilted>0</tilted></_>
    <_>
      <rects>
        <_>
          5 0 3 20 -1.</_>
        <_>
          6 0 1 20 3.</_></rects>
      <tilted>0</tilted></_>
    <_>
      <rects>
        <_>
          5 2 14 4 -1.</_>
        <_>
          12 2 7 4 2.</_></rects>
      <tilted>0</tilted></_>
    <_>
      <rects>
        <_>
          5 5 3 1 -1.</_>
        <_>
          6 5 1 1 3.</_></rects>
      <tilted>0</tilted></_>
    <_>
      <rects>
        <_>
          5 5 2 4 -1.</_>
        <_>
          5 5 1 2 2.</_>
        <_>
          6 7 1 2 2.</_></rects>
      <tilted>0</tilted></_>
    <_>
      <rects>
        <_>
          5 5 6 8 -1.</_>
        <_>
          5 5 3 4 2.</_>
        <_>
          8 9 3 4 2.</_></rects>
      <tilted>0</tilted></_>
    <_>
      <rects>
        <_>
          5 11 3 1 -1.</_>
        <_>
          6 11 1 1 3.</_></rects>
      <tilted>0</tilted></_>
    <_>
      <rects>
        <_>
          5 11 12 3 -1.</_>
        <_>
          5 12 12 1 3.</_></rects>
      <tilted>0</tilted></_>
    <_>
      <rects>
        <_>
          5 14 4 3 -1.</_>
        <_>
          5 15 4 1 3.</_></rects>
      <tilted>0</tilted></_>
    <_>
      <rects>
        <_>
          5 14 12 1 -1.</_>
        <_>
          11 14 6 1 2.</_></rects>
      <tilted>0</tilted></_>
    <_>
      <rects>
        <_>
          5 16 11 4 -1.</_>
        <_>
          5 18 11 2 2.</_></rects>
      <tilted>0</tilted></_>
    <_>
      <rects>
        <_>
          5 17 1 3 -1.</_>
        <_>
          5 18 1 1 3.</_></rects>
      <tilted>0</tilted></_>
    <_>
      <rects>
        <_>
          5 18 3 2 -1.</_>
        <_>
          6 18 1 2 3.</_></rects>
      <tilted>0</tilted></_>
    <_>
      <rects>
        <_>
          6 0 1 10 -1.</_>
        <_>
          6 5 1 5 2.</_></rects>
      <tilted>0</tilted></_>
    <_>
      <rects>
        <_>
          6 1 1 9 -1.</_>
        <_>
          6 4 1 3 3.</_></rects>
      <tilted>0</tilted></_>
    <_>
      <rects>
        <_>
          6 2 3 2 -1.</_>
        <_>
          7 2 1 2 3.</_></rects>
      <tilted>0</tilted></_>
    <_>
      <rects>
        <_>
          6 2 6 2 -1.</_>
        <_>
          6 2 3 1 2.</_>
        <_>
          9 3 3 1 2.</_></rects>
      <tilted>0</tilted></_>
    <_>
      <rects>
        <_>
          6 3 3 3 -1.</_>
        <_>
          7 3 1 3 3.</_></rects>
      <tilted>0</tilted></_>
    <_>
      <rects>
        <_>
          6 4 3 1 -1.</_>
        <_>
          7 4 1 1 3.</_></rects>
      <tilted>0</tilted></_>
    <_>
      <rects>
        <_>
          6 5 2 1 -1.</_>
        <_>
          7 5 1 1 2.</_></rects>
      <tilted>0</tilted></_>
    <_>
      <rects>
        <_>
          6 5 7 15 -1.</_>
        <_>
          6 10 7 5 3.</_></rects>
      <tilted>0</tilted></_>
    <_>
      <rects>
        <_>
          6 6 2 6 -1.</_>
        <_>
          6 6 1 3 2.</_>
        <_>
          7 9 1 3 2.</_></rects>
      <tilted>0</tilted></_>
    <_>
      <rects>
        <_>
          6 8 6 4 -1.</_>
        <_>
          6 8 3 2 2.</_>
        <_>
          9 10 3 2 2.</_></rects>
      <tilted>0</tilted></_>
    <_>
      <rects>
        <_>
          6 13 3 3 -1.</_>
        <_>
          6 14 3 1 3.</_></rects>
      <tilted>0</tilted></_>
    <_>
      <rects>
        <_>
          6 14 4 2 -1.</_>
        <_>
          8 14 2 2 2.</_></rects>
      <tilted>0</tilted></_>
    <_>
      <rects>
        <_>
          6 14 8 2 -1.</_>
        <_>
          6 14 4 1 2.</_>
        <_>
          10 15 4 1 2.</_></rects>
      <tilted>0</tilted></_>
    <_>
      <rects>
        <_>
          7 0 1 9 -1.</_>
        <_>
          7 3 1 3 3.</_></rects>
      <tilted>0</tilted></_>
    <_>
      <rects>
        <_>
          7 1 3 2 -1.</_>
        <_>
          8 1 1 2 3.</_></rects>
      <tilted>0</tilted></_>
    <_>
      <rects>
        <_>
          7 2 3 2 -1.</_>
        <_>
          8 2 1 2 3.</_></rects>
      <tilted>0</tilted></_>
    <_>
      <rects>
        <_>
          7 3 12 1 -1.</_>
        <_>
          13 3 6 1 2.</_></rects>
      <tilted>0</tilted></_>
    <_>
      <rects>
        <_>
          7 4 3 1 -1.</_>
        <_>
          8 4 1 1 3.</_></rects>
      <tilted>0</tilted></_>
    <_>
      <rects>
        <_>
          7 6 6 4 -1.</_>
        <_>
          10 6 3 4 2.</_></rects>
      <tilted>0</tilted></_>
    <_>
      <rects>
        <_>
          7 7 4 2 -1.</_>
        <_>
          7 8 4 1 2.</_></rects>
      <tilted>0</tilted></_>
    <_>
      <rects>
        <_>
          7 7 10 2 -1.</_>
        <_>
          7 7 5 1 2.</_>
        <_>
          12 8 5 1 2.</_></rects>
      <tilted>0</tilted></_>
    <_>
      <rects>
        <_>
          7 7 8 12 -1.</_>
        <_>
          7 11 8 4 3.</_></rects>
      <tilted>0</tilted></_>
    <_>
      <rects>
        <_>
          7 11 6 7 -1.</_>
        <_>
          10 11 3 7 2.</_></rects>
      <tilted>0</tilted></_>
    <_>
      <rects>
        <_>
          7 11 9 9 -1.</_>
        <_>
          10 11 3 9 3.</_></rects>
      <tilted>0</tilted></_>
    <_>
      <rects>
        <_>
          7 11 12 8 -1.</_>
        <_>
          11 11 4 8 3.</_></rects>
      <tilted>0</tilted></_>
    <_>
      <rects>
        <_>
          7 11 6 6 -1.</_>
        <_>
          7 14 6 3 2.</_></rects>
      <tilted>0</tilted></_>
    <_>
      <rects>
        <_>
          7 12 1 6 -1.</_>
        <_>
          7 14 1 2 3.</_></rects>
      <tilted>0</tilted></_>
    <_>
      <rects>
        <_>
          7 14 10 4 -1.</_>
        <_>
          7 14 5 2 2.</_>
        <_>
          12 16 5 2 2.</_></rects>
      <tilted>0</tilted></_>
    <_>
      <rects>
        <_>
          7 15 1 2 -1.</_>
        <_>
          7 16 1 1 2.</_></rects>
      <tilted>0</tilted></_>
    <_>
      <rects>
        <_>
          8 1 2 16 -1.</_>
        <_>
          9 1 1 16 2.</_></rects>
      <tilted>0</tilted></_>
    <_>
      <rects>
        <_>
          8 1 3 15 -1.</_>
        <_>
          8 6 3 5 3.</_></rects>
      <tilted>0</tilted></_>
    <_>
      <rects>
        <_>
          8 3 2 16 -1.</_>
        <_>
          8 3 1 8 2.</_>
        <_>
          9 11 1 8 2.</_></rects>
      <tilted>0</tilted></_>
    <_>
      <rects>
        <_>
          8 3 3 16 -1.</_>
        <_>
          9 3 1 16 3.</_></rects>
      <tilted>0</tilted></_>
    <_>
      <rects>
        <_>
          8 3 3 3 -1.</_>
        <_>
          8 4 3 1 3.</_></rects>
      <tilted>0</tilted></_>
    <_>
      <rects>
        <_>
          8 3 7 10 -1.</_>
        <_>
          8 8 7 5 2.</_></rects>
      <tilted>0</tilted></_>
    <_>
      <rects>
        <_>
          8 4 3 1 -1.</_>
        <_>
          9 4 1 1 3.</_></rects>
      <tilted>0</tilted></_>
    <_>
      <rects>
        <_>
          8 4 3 2 -1.</_>
        <_>
          9 4 1 2 3.</_></rects>
      <tilted>0</tilted></_>
    <_>
      <rects>
        <_>
          8 4 2 10 -1.</_>
        <_>
          8 4 1 5 2.</_>
        <_>
          9 9 1 5 2.</_></rects>
      <tilted>0</tilted></_>
    <_>
      <rects>
        <_>
          8 4 2 3 -1.</_>
        <_>
          8 5 2 1 3.</_></rects>
      <tilted>0</tilted></_>
    <_>
      <rects>
        <_>
          8 6 6 8 -1.</_>
        <_>
          8 10 6 4 2.</_></rects>
      <tilted>0</tilted></_>
    <_>
      <rects>
        <_>
          8 7 4 5 -1.</_>
        <_>
          10 7 2 5 2.</_></rects>
      <tilted>0</tilted></_>
    <_>
      <rects>
        <_>
          8 8 10 6 -1.</_>
        <_>
          8 8 5 3 2.</_>
        <_>
          13 11 5 3 2.</_></rects>
      <tilted>0</tilted></_>
    <_>
      <rects>
        <_>
          8 11 2 1 -1.</_>
        <_>
          9 11 1 1 2.</_></rects>
      <tilted>0</tilted></_>
    <_>
      <rects>
        <_>
          8 13 5 6 -1.</_>
        <_>
          8 16 5 3 2.</_></rects>
      <tilted>0</tilted></_>
    <_>
      <rects>
        <_>
          8 14 12 6 -1.</_>
        <_>
          12 14 4 6 3.</_></rects>
      <tilted>0</tilted></_>
    <_>
      <rects>
        <_>
          8 16 3 2 -1.</_>
        <_>
          9 16 1 2 3.</_></rects>
      <tilted>0</tilted></_>
    <_>
      <rects>
        <_>
          8 18 2 2 -1.</_>
        <_>
          8 18 1 1 2.</_>
        <_>
          9 19 1 1 2.</_></rects>
      <tilted>0</tilted></_>
    <_>
      <rects>
        <_>
          8 18 10 2 -1.</_>
        <_>
          8 18 5 1 2.</_>
        <_>
          13 19 5 1 2.</_></rects>
      <tilted>0</tilted></_>
    <_>
      <rects>
        <_>
          9 0 6 18 -1.</_>
        <_>
          9 9 6 9 2.</_></rects>
      <tilted>0</tilted></_>
    <_>
      <rects>
        <_>
          9 0 11 12 -1.</_>
        <_>
          9 6 11 6 2.</_></rects>
      <tilted>0</tilted></_>
    <_>
      <rects>
        <_>
          9 2 2 8 -1.</_>
        <_>
          10 2 1 8 2.</_></rects>
      <tilted>0</tilted></_>
    <_>
      <rects>
        <_>
          9 2 3 17 -1.</_>
        <_>
          10 2 1 17 3.</_></rects>
      <tilted>0</tilted></_>
    <_>
      <rects>
        <_>
          9 2 2 6 -1.</_>
        <_>
          9 4 2 2 3.</_></rects>
      <tilted>0</tilted></_>
    <_>
      <rects>
        <_>
          9 4 2 1 -1.</_>
        <_>
          10 4 1 1 2.</_></rects>
      <tilted>0</tilted></_>
    <_>
      <rects>
        <_>
          9 4 4 9 -1.</_>
        <_>
          11 4 2 9 2.</_></rects>
      <tilted>0</tilted></_>
    <_>
      <rects>
        <_>
          9 6 2 3 -1.</_>
        <_>
          9 7 2 1 3.</_></rects>
      <tilted>0</tilted></_>
    <_>
      <rects>
        <_>
          9 6 4 4 -1.</_>
        <_>
          11 6 2 4 2.</_></rects>
      <tilted>0</tilted></_>
    <_>
      <rects>
        <_>
          9 6 3 10 -1.</_>
        <_>
          9 11 3 5 2.</_></rects>
      <tilted>0</tilted></_>
    <_>
      <rects>
        <_>
          9 6 11 9 -1.</_>
        <_>
          9 9 11 3 3.</_></rects>
      <tilted>0</tilted></_>
    <_>
      <rects>
        <_>
          9 7 1 3 -1.</_>
        <_>
          9 8 1 1 3.</_></rects>
      <tilted>0</tilted></_>
    <_>
      <rects>
        <_>
          9 7 1 12 -1.</_>
        <_>
          9 13 1 6 2.</_></rects>
      <tilted>0</tilted></_>
    <_>
      <rects>
        <_>
          9 7 2 12 -1.</_>
        <_>
          9 13 2 6 2.</_></rects>
      <tilted>0</tilted></_>
    <_>
      <rects>
        <_>
          9 7 3 6 -1.</_>
        <_>
          9 9 3 2 3.</_></rects>
      <tilted>0</tilted></_>
    <_>
      <rects>
        <_>
          9 7 9 3 -1.</_>
        <_>
          12 7 3 3 3.</_></rects>
      <tilted>0</tilted></_>
    <_>
      <rects>
        <_>
          9 8 1 3 -1.</_>
        <_>
          9 9 1 1 3.</_></rects>
      <tilted>0</tilted></_>
    <_>
      <rects>
        <_>
          9 8 3 12 -1.</_>
        <_>
          9 14 3 6 2.</_></rects>
      <tilted>0</tilted></_>
    <_>
      <rects>
        <_>
          9 10 9 2 -1.</_>
        <_>
          12 10 3 2 3.</_></rects>
      <tilted>0</tilted></_>
    <_>
      <rects>
        <_>
          9 10 3 9 -1.</_>
        <_>
          9 13 3 3 3.</_></rects>
      <tilted>0</tilted></_>
    <_>
      <rects>
        <_>
          9 11 6 9 -1.</_>
        <_>
          9 14 6 3 3.</_></rects>
      <tilted>0</tilted></_>
    <_>
      <rects>
        <_>
          9 13 5 4 -1.</_>
        <_>
          9 15 5 2 2.</_></rects>
      <tilted>0</tilted></_>
    <_>
      <rects>
        <_>
          9 14 10 4 -1.</_>
        <_>
          9 14 5 2 2.</_>
        <_>
          14 16 5 2 2.</_></rects>
      <tilted>0</tilted></_>
    <_>
      <rects>
        <_>
          9 15 6 4 -1.</_>
        <_>
          9 15 3 2 2.</_>
        <_>
          12 17 3 2 2.</_></rects>
      <tilted>0</tilted></_>
    <_>
      <rects>
        <_>
          9 18 6 2 -1.</_>
        <_>
          11 18 2 2 3.</_></rects>
      <tilted>0</tilted></_>
    <_>
      <rects>
        <_>
          10 0 2 9 -1.</_>
        <_>
          10 3 2 3 3.</_></rects>
      <tilted>0</tilted></_>
    <_>
      <rects>
        <_>
          10 0 6 12 -1.</_>
        <_>
          10 0 3 6 2.</_>
        <_>
          13 6 3 6 2.</_></rects>
      <tilted>0</tilted></_>
    <_>
      <rects>
        <_>
          10 1 3 16 -1.</_>
        <_>
          11 1 1 16 3.</_></rects>
      <tilted>0</tilted></_>
    <_>
      <rects>
        <_>
          10 2 3 16 -1.</_>
        <_>
          10 10 3 8 2.</_></rects>
      <tilted>0</tilted></_>
    <_>
      <rects>
        <_>
          10 4 2 14 -1.</_>
        <_>
          10 4 1 7 2.</_>
        <_>
          11 11 1 7 2.</_></rects>
      <tilted>0</tilted></_>
    <_>
      <rects>
        <_>
          10 4 6 3 -1.</_>
        <_>
          12 4 2 3 3.</_></rects>
      <tilted>0</tilted></_>
    <_>
      <rects>
        <_>
          10 5 2 5 -1.</_>
        <_>
          11 5 1 5 2.</_></rects>
      <tilted>0</tilted></_>
    <_>
      <rects>
        <_>
          10 5 3 5 -1.</_>
        <_>
          11 5 1 5 3.</_></rects>
      <tilted>0</tilted></_>
    <_>
      <rects>
        <_>
          10 5 9 1 -1.</_>
        <_>
          13 5 3 1 3.</_></rects>
      <tilted>0</tilted></_>
    <_>
      <rects>
        <_>
          10 6 1 14 -1.</_>
        <_>
          10 13 1 7 2.</_></rects>
      <tilted>0</tilted></_>
    <_>
      <rects>
        <_>
          10 7 3 3 -1.</_>
        <_>
          10 8 3 1 3.</_></rects>
      <tilted>0</tilted></_>
    <_>
      <rects>
        <_>
          10 8 1 3 -1.</_>
        <_>
          10 9 1 1 3.</_></rects>
      <tilted>0</tilted></_>
    <_>
      <rects>
        <_>
          10 9 2 10 -1.</_>
        <_>
          10 14 2 5 2.</_></rects>
      <tilted>0</tilted></_>
    <_>
      <rects>
        <_>
          10 10 3 1 -1.</_>
        <_>
          11 10 1 1 3.</_></rects>
      <tilted>0</tilted></_>
    <_>
      <rects>
        <_>
          10 11 1 6 -1.</_>
        <_>
          10 14 1 3 2.</_></rects>
      <tilted>0</tilted></_>
    <_>
      <rects>
        <_>
          10 13 2 1 -1.</_>
        <_>
          11 13 1 1 2.</_></rects>
      <tilted>0</tilted></_>
    <_>
      <rects>
        <_>
          10 13 2 3 -1.</_>
        <_>
          10 14 2 1 3.</_></rects>
      <tilted>0</tilted></_>
    <_>
      <rects>
        <_>
          10 14 1 3 -1.</_>
        <_>
          10 15 1 1 3.</_></rects>
      <tilted>0</tilted></_>
    <_>
      <rects>
        <_>
          11 0 1 9 -1.</_>
        <_>
          11 3 1 3 3.</_></rects>
      <tilted>0</tilted></_>
    <_>
      <rects>
        <_>
          11 1 2 16 -1.</_>
        <_>
          11 1 1 8 2.</_>
        <_>
          12 9 1 8 2.</_></rects>
      <tilted>0</tilted></_>
    <_>
      <rects>
        <_>
          11 1 4 16 -1.</_>
        <_>
          11 9 4 8 2.</_></rects>
      <tilted>0</tilted></_>
    <_>
      <rects>
        <_>
          11 5 6 4 -1.</_>
        <_>
          11 5 3 2 2.</_>
        <_>
          14 7 3 2 2.</_></rects>
      <tilted>0</tilted></_>
    <_>
      <rects>
        <_>
          11 6 3 1 -1.</_>
        <_>
          12 6 1 1 3.</_></rects>
      <tilted>0</tilted></_>
    <_>
      <rects>
        <_>
          11 6 1 3 -1.</_>
        <_>
          11 7 1 1 3.</_></rects>
      <tilted>0</tilted></_>
    <_>
      <rects>
        <_>
          11 6 1 4 -1.</_>
        <_>
          11 8 1 2 2.</_></rects>
      <tilted>0</tilted></_>
    <_>
      <rects>
        <_>
          11 6 5 3 -1.</_>
        <_>
          11 7 5 1 3.</_></rects>
      <tilted>0</tilted></_>
    <_>
      <rects>
        <_>
          11 7 3 1 -1.</_>
        <_>
          12 7 1 1 3.</_></rects>
      <tilted>0</tilted></_>
    <_>
      <rects>
        <_>
          11 8 8 2 -1.</_>
        <_>
          15 8 4 2 2.</_></rects>
      <tilted>0</tilted></_>
    <_>
      <rects>
        <_>
          11 9 9 1 -1.</_>
        <_>
          14 9 3 1 3.</_></rects>
      <tilted>0</tilted></_>
    <_>
      <rects>
        <_>
          11 11 1 6 -1.</_>
        <_>
          11 13 1 2 3.</_></rects>
      <tilted>0</tilted></_>
    <_>
      <rects>
        <_>
          11 12 8 8 -1.</_>
        <_>
          11 16 8 4 2.</_></rects>
      <tilted>0</tilted></_>
    <_>
      <rects>
        <_>
          11 14 2 6 -1.</_>
        <_>
          11 16 2 2 3.</_></rects>
      <tilted>0</tilted></_>
    <_>
      <rects>
        <_>
          11 18 5 2 -1.</_>
        <_>
          11 19 5 1 2.</_></rects>
      <tilted>0</tilted></_>
    <_>
      <rects>
        <_>
          12 4 4 4 -1.</_>
        <_>
          12 4 2 2 2.</_>
        <_>
          14 6 2 2 2.</_></rects>
      <tilted>0</tilted></_>
    <_>
      <rects>
        <_>
          12 5 2 3 -1.</_>
        <_>
          12 6 2 1 3.</_></rects>
      <tilted>0</tilted></_>
    <_>
      <rects>
        <_>
          12 5 8 8 -1.</_>
        <_>
          12 9 8 4 2.</_></rects>
      <tilted>0</tilted></_>
    <_>
      <rects>
        <_>
          12 6 1 3 -1.</_>
        <_>
          12 7 1 1 3.</_></rects>
      <tilted>0</tilted></_>
    <_>
      <rects>
        <_>
          12 7 3 2 -1.</_>
        <_>
          13 7 1 2 3.</_></rects>
      <tilted>0</tilted></_>
    <_>
      <rects>
        <_>
          12 9 2 1 -1.</_>
        <_>
          13 9 1 1 2.</_></rects>
      <tilted>0</tilted></_>
    <_>
      <rects>
        <_>
          12 9 3 1 -1.</_>
        <_>
          13 9 1 1 3.</_></rects>
      <tilted>0</tilted></_>
    <_>
      <rects>
        <_>
          12 9 2 3 -1.</_>
        <_>
          13 9 1 3 2.</_></rects>
      <tilted>0</tilted></_>
    <_>
      <rects>
        <_>
          12 11 8 3 -1.</_>
        <_>
          12 12 8 1 3.</_></rects>
      <tilted>0</tilted></_>
    <_>
      <rects>
        <_>
          12 12 3 1 -1.</_>
        <_>
          13 12 1 1 3.</_></rects>
      <tilted>0</tilted></_>
    <_>
      <rects>
        <_>
          13 0 2 12 -1.</_>
        <_>
          13 4 2 4 3.</_></rects>
      <tilted>0</tilted></_>
    <_>
      <rects>
        <_>
          13 0 4 13 -1.</_>
        <_>
          15 0 2 13 2.</_></rects>
      <tilted>0</tilted></_>
    <_>
      <rects>
        <_>
          13 0 3 6 -1.</_>
        <_>
          13 3 3 3 2.</_></rects>
      <tilted>0</tilted></_>
    <_>
      <rects>
        <_>
          13 6 4 6 -1.</_>
        <_>
          13 6 2 3 2.</_>
        <_>
          15 9 2 3 2.</_></rects>
      <tilted>0</tilted></_>
    <_>
      <rects>
        <_>
          13 7 4 1 -1.</_>
        <_>
          15 7 2 1 2.</_></rects>
      <tilted>0</tilted></_>
    <_>
      <rects>
        <_>
          13 9 4 9 -1.</_>
        <_>
          13 12 4 3 3.</_></rects>
      <tilted>0</tilted></_>
    <_>
      <rects>
        <_>
          13 16 2 1 -1.</_>
        <_>
          14 16 1 1 2.</_></rects>
      <tilted>0</tilted></_>
    <_>
      <rects>
        <_>
          13 18 2 2 -1.</_>
        <_>
          13 18 1 1 2.</_>
        <_>
          14 19 1 1 2.</_></rects>
      <tilted>0</tilted></_>
    <_>
      <rects>
        <_>
          14 8 6 5 -1.</_>
        <_>
          16 8 2 5 3.</_></rects>
      <tilted>0</tilted></_>
    <_>
      <rects>
        <_>
          14 9 6 2 -1.</_>
        <_>
          14 10 6 1 2.</_></rects>
      <tilted>0</tilted></_>
    <_>
      <rects>
        <_>
          14 10 3 2 -1.</_>
        <_>
          14 11 3 1 2.</_></rects>
      <tilted>0</tilted></_>
    <_>
      <rects>
        <_>
          15 0 4 4 -1.</_>
        <_>
          15 2 4 2 2.</_></rects>
      <tilted>0</tilted></_>
    <_>
      <rects>
        <_>
          15 2 4 12 -1.</_>
        <_>
          17 2 2 12 2.</_></rects>
      <tilted>0</tilted></_>
    <_>
      <rects>
        <_>
          15 4 3 12 -1.</_>
        <_>
          16 4 1 12 3.</_></rects>
      <tilted>0</tilted></_>
    <_>
      <rects>
        <_>
          15 5 4 10 -1.</_>
        <_>
          17 5 2 10 2.</_></rects>
      <tilted>0</tilted></_>
    <_>
      <rects>
        <_>
          15 7 1 9 -1.</_>
        <_>
          15 10 1 3 3.</_></rects>
      <tilted>0</tilted></_>
    <_>
      <rects>
        <_>
          15 9 1 9 -1.</_>
        <_>
          15 12 1 3 3.</_></rects>
      <tilted>0</tilted></_>
    <_>
      <rects>
        <_>
          15 18 3 2 -1.</_>
        <_>
          16 18 1 2 3.</_></rects>
      <tilted>0</tilted></_>
    <_>
      <rects>
        <_>
          15 19 3 1 -1.</_>
        <_>
          16 19 1 1 3.</_></rects>
      <tilted>0</tilted></_>
    <_>
      <rects>
        <_>
          16 0 1 4 -1.</_>
        <_>
          16 2 1 2 2.</_></rects>
      <tilted>0</tilted></_>
    <_>
      <rects>
        <_>
          16 0 2 9 -1.</_>
        <_>
          17 0 1 9 2.</_></rects>
      <tilted>0</tilted></_>
    <_>
      <rects>
        <_>
          16 1 1 9 -1.</_>
        <_>
          16 4 1 3 3.</_></rects>
      <tilted>0</tilted></_>
    <_>
      <rects>
        <_>
          16 2 1 18 -1.</_>
        <_>
          16 8 1 6 3.</_></rects>
      <tilted>0</tilted></_>
    <_>
      <rects>
        <_>
          16 8 4 4 -1.</_>
        <_>
          18 8 2 4 2.</_></rects>
      <tilted>0</tilted></_>
    <_>
      <rects>
        <_>
          16 13 2 3 -1.</_>
        <_>
          16 14 2 1 3.</_></rects>
      <tilted>0</tilted></_>
    <_>
      <rects>
        <_>
          17 0 3 5 -1.</_>
        <_>
          18 0 1 5 3.</_></rects>
      <tilted>0</tilted></_>
    <_>
      <rects>
        <_>
          17 4 3 3 -1.</_>
        <_>
          17 5 3 1 3.</_></rects>
      <tilted>0</tilted></_>
    <_>
      <rects>
        <_>
          18 6 2 6 -1.</_>
        <_>
          19 6 1 6 2.</_></rects>
      <tilted>0</tilted></_>
    <_>
      <rects>
        <_>
          18 7 2 6 -1.</_>
        <_>
          19 7 1 6 2.</_></rects>
      <tilted>0</tilted></_>
    <_>
      <rects>
        <_>
          18 10 1 2 -1.</_>
        <_>
          18 11 1 1 2.</_></rects>
      <tilted>0</tilted></_>
    <_>
      <rects>
        <_>
          18 14 2 2 -1.</_>
        <_>
          18 14 1 1 2.</_>
        <_>
          19 15 1 1 2.</_></rects>
      <tilted>0</tilted></_>
    <_>
      <rects>
        <_>
          18 16 2 3 -1.</_>
        <_>
          19 16 1 3 2.</_></rects>
      <tilted>0</tilted></_>
    <_>
      <rects>
        <_>
          19 2 1 9 -1.</_>
        <_>
          19 5 1 3 3.</_></rects>
      <tilted>0</tilted></_></features></cascade>
</opencv_storage>
