<?xml version="1.0"?>
<opencv_storage>
<cascade>
  <stageType>BOOST</stageType>
  <featureType>HAAR</featureType>
  <height>20</height>
  <width>20</width>
  <stageParams>
    <boostType>GAB</boostType>
    <minHitRate>9.9500000476837158e-01</minHitRate>
    <maxFalseAlarm>1.0000000149011612e-01</maxFalseAlarm>
    <weightTrimRate>9.4999999999999996e-01</weightTrimRate>
    <maxDepth>1</maxDepth>
    <maxWeakCount>100</maxWeakCount></stageParams>
  <featureParams>
    <maxCatCount>0</maxCatCount>
    <featSize>1</featSize>
    <mode>BASIC</mode></featureParams>
  <stageNum>6</stageNum>
  <stages>
    <!-- stage 0 -->
    <_>
      <maxWeakCount>10</maxWeakCount>
      <stageThreshold>-5.2850518375635147e-02</stageThreshold>
      <weakClassifiers>
        <_>
          <internalNodes>
            0 -1 62 2.5217618793249130e-02</internalNodes>
          <leafValues>
            6.0162603855133057e-01 -8.8888889551162720e-01</leafValues></_>
        <_>
          <internalNodes>
            0 -1 4 8.7111052125692368e-03</internalNodes>
          <leafValues>
            -3.8211962580680847e-01 7.6440399885177612e-01</leafValues></_>
        <_>
          <internalNodes>
            0 -1 21 1.5275433659553528e-02</internalNodes>
          <leafValues>
            -3.2394018769264221e-01 7.0708936452865601e-01</leafValues></_>
        <_>
          <internalNodes>
            0 -1 77 -2.6911623775959015e-02</internalNodes>
          <leafValues>
            8.5500317811965942e-01 -2.3650379478931427e-01</leafValues></_>
        <_>
          <internalNodes>
            0 -1 73 6.7050987854599953e-03</internalNodes>
          <leafValues>
            -3.5173004865646362e-01 6.2696456909179688e-01</leafValues></_>
        <_>
          <internalNodes>
            0 -1 34 -5.2313832566142082e-03</internalNodes>
          <leafValues>
            6.2881255149841309e-01 -4.2669361829757690e-01</leafValues></_>
        <_>
          <internalNodes>
            0 -1 29 -7.3948502540588379e-04</internalNodes>
          <leafValues>
            -5.3662353754043579e-01 4.7468382120132446e-01</leafValues></_>
        <_>
          <internalNodes>
            0 -1 13 -3.0968312174081802e-02</internalNodes>
          <leafValues>
            6.5709942579269409e-01 -3.9899957180023193e-01</leafValues></_>
        <_>
          <internalNodes>
            0 -1 26 -4.0668427944183350e-02</internalNodes>
          <leafValues>
            7.8722423315048218e-01 -3.0583930015563965e-01</leafValues></_>
        <_>
          <internalNodes>
            0 -1 52 1.2123741209506989e-02</internalNodes>
          <leafValues>
            2.9824900627136230e-01 -8.2452082633972168e-01</leafValues></_></weakClassifiers></_>
    <!-- stage 1 -->
    <_>
      <maxWeakCount>15</maxWeakCount>
      <stageThreshold>-4.1700860857963562e-01</stageThreshold>
      <weakClassifiers>
        <_>
          <internalNodes>
            0 -1 76 1.3924675062298775e-02</internalNodes>
          <leafValues>
            -6.0975611209869385e-02 8.0882352590560913e-01</leafValues></_>
        <_>
          <internalNodes>
            0 -1 59 2.4111855775117874e-02</internalNodes>
          <leafValues>
            -1.8362209200859070e-01 7.3299622535705566e-01</leafValues></_>
        <_>
          <internalNodes>
            0 -1 39 -1.1381005868315697e-02</internalNodes>
          <leafValues>
            5.3485202789306641e-01 -3.1326687335968018e-01</leafValues></_>
        <_>
          <internalNodes>
            0 -1 35 5.1873419433832169e-03</internalNodes>
          <leafValues>
            -2.4391143023967743e-01 7.5114649534225464e-01</leafValues></_>
        <_>
          <internalNodes>
            0 -1 30 9.7142141312360764e-03</internalNodes>
          <leafValues>
            -2.3163333535194397e-01 7.6655769348144531e-01</leafValues></_>
        <_>
          <internalNodes>
            0 -1 36 -1.8766397261060774e-04</internalNodes>
          <leafValues>
            -4.4657802581787109e-01 4.0790131688117981e-01</leafValues></_>
        <_>
          <internalNodes>
            0 -1 54 -8.6607988923788071e-03</internalNodes>
          <leafValues>
            5.6069523096084595e-01 -3.4191706776618958e-01</leafValues></_>
        <_>
          <internalNodes>
            0 -1 12 -5.7650793343782425e-02</internalNodes>
          <leafValues>
            -8.5869008302688599e-01 2.2050020098686218e-01</leafValues></_>
        <_>
          <internalNodes>
            0 -1 44 -4.2032601777464151e-04</internalNodes>
          <leafValues>
            -4.9861547350883484e-01 3.8346901535987854e-01</leafValues></_>
        <_>
          <internalNodes>
            0 -1 82 -3.4544779919087887e-03</internalNodes>
          <leafValues>
            -5.8942741155624390e-01 3.5864055156707764e-01</leafValues></_>
        <_>
          <internalNodes>
            0 -1 69 -8.8785949628800154e-05</internalNodes>
          <leafValues>
            -5.4873579740524292e-01 3.7283310294151306e-01</leafValues></_>
        <_>
          <internalNodes>
            0 -1 80 -3.2664274331182241e-03</internalNodes>
          <leafValues>
            6.5449810028076172e-01 -3.1297898292541504e-01</leafValues></_>
        <_>
          <internalNodes>
            0 -1 60 -3.4072540700435638e-02</internalNodes>
          <leafValues>
            8.5262185335159302e-01 -2.6760613918304443e-01</leafValues></_>
        <_>
          <internalNodes>
            0 -1 75 -7.1982678491622210e-04</internalNodes>
          <leafValues>
            -6.9311678409576416e-01 3.4655275940895081e-01</leafValues></_>
        <_>
          <internalNodes>
            0 -1 6 5.0400357693433762e-02</internalNodes>
          <leafValues>
            -3.1992262601852417e-01 8.1611579656600952e-01</leafValues></_></weakClassifiers></_>
    <!-- stage 2 -->
    <_>
      <maxWeakCount>14</maxWeakCount>
      <stageThreshold>-7.0838113315403461e-03</stageThreshold>
      <weakClassifiers>
        <_>
          <internalNodes>
            0 -1 14 -6.7971199750900269e-03</internalNodes>
          <leafValues>
            7.0329672098159790e-01 -2.3728813230991364e-01</leafValues></_>
        <_>
          <internalNodes>
            0 -1 2 5.8072637766599655e-03</internalNodes>
          <leafValues>
            -1.9743674993515015e-01 7.8025513887405396e-01</leafValues></_>
        <_>
          <internalNodes>
            0 -1 57 -2.0513392984867096e-02</internalNodes>
          <leafValues>
            6.9891136884689331e-01 -2.3983278870582581e-01</leafValues></_>
        <_>
          <internalNodes>
            0 -1 63 2.2512672003358603e-03</internalNodes>
          <leafValues>
            -4.1737386584281921e-01 5.0347292423248291e-01</leafValues></_>
        <_>
          <internalNodes>
            0 -1 31 6.9907256402075291e-03</internalNodes>
          <leafValues>
            -3.2107841968536377e-01 6.2250113487243652e-01</leafValues></_>
        <_>
          <internalNodes>
            0 -1 19 -1.1350933928042650e-03</internalNodes>
          <leafValues>
            5.3332668542861938e-01 -3.8721171021461487e-01</leafValues></_>
        <_>
          <internalNodes>
            0 -1 22 5.5427215993404388e-02</internalNodes>
          <leafValues>
            3.7275949120521545e-01 -5.2562844753265381e-01</leafValues></_>
        <_>
          <internalNodes>
            0 -1 45 2.7743439204641618e-05</internalNodes>
          <leafValues>
            -5.4883509874343872e-01 3.8781514763832092e-01</leafValues></_>
        <_>
          <internalNodes>
            0 -1 28 3.8521505892276764e-02</internalNodes>
          <leafValues>
            -2.0857720077037811e-01 8.4264469146728516e-01</leafValues></_>
        <_>
          <internalNodes>
            0 -1 64 1.2395469471812248e-02</internalNodes>
          <leafValues>
            -2.1105301380157471e-01 8.2844871282577515e-01</leafValues></_>
        <_>
          <internalNodes>
            0 -1 42 -1.0420010425150394e-02</internalNodes>
          <leafValues>
            -7.2270423173904419e-01 3.2002741098403931e-01</leafValues></_>
        <_>
          <internalNodes>
            0 -1 81 -2.3266284551937133e-04</internalNodes>
          <leafValues>
            -6.1322540044784546e-01 3.1903430819511414e-01</leafValues></_>
        <_>
          <internalNodes>
            0 -1 17 -1.5044966712594032e-03</internalNodes>
          <leafValues>
            8.6111903190612793e-01 -2.3645235598087311e-01</leafValues></_>
        <_>
          <internalNodes>
            0 -1 46 -1.2126116082072258e-02</internalNodes>
          <leafValues>
            -8.8503074645996094e-01 2.5093054771423340e-01</leafValues></_></weakClassifiers></_>
    <!-- stage 3 -->
    <_>
      <maxWeakCount>15</maxWeakCount>
      <stageThreshold>-4.1945293545722961e-01</stageThreshold>
      <weakClassifiers>
        <_>
          <internalNodes>
            0 -1 72 2.4023244157433510e-02</internalNodes>
          <leafValues>
            -4.9382716417312622e-02 7.8260868787765503e-01</leafValues></_>
        <_>
          <internalNodes>
            0 -1 56 7.9840114340186119e-03</internalNodes>
          <leafValues>
            -2.3738197982311249e-01 6.9916814565658569e-01</leafValues></_>
        <_>
          <internalNodes>
            0 -1 74 -7.6586083741858602e-04</internalNodes>
          <leafValues>
            -4.9017804861068726e-01 4.6464380621910095e-01</leafValues></_>
        <_>
          <internalNodes>
            0 -1 16 -4.9130110710393637e-05</internalNodes>
          <leafValues>
            -5.9822678565979004e-01 3.3833491802215576e-01</leafValues></_>
        <_>
          <internalNodes>
            0 -1 78 -3.8725795457139611e-04</internalNodes>
          <leafValues>
            -5.4952806234359741e-01 3.0094370245933533e-01</leafValues></_>
        <_>
          <internalNodes>
            0 -1 32 -5.5440218420699239e-04</internalNodes>
          <leafValues>
            -5.3803759813308716e-01 3.8089540600776672e-01</leafValues></_>
        <_>
          <internalNodes>
            0 -1 49 1.2189032509922981e-02</internalNodes>
          <leafValues>
            -3.3255207538604736e-01 6.2524479627609253e-01</leafValues></_>
        <_>
          <internalNodes>
            0 -1 8 -9.6568055450916290e-03</internalNodes>
          <leafValues>
            -7.1043306589126587e-01 3.2380196452140808e-01</leafValues></_>
        <_>
          <internalNodes>
            0 -1 43 -1.0668901726603508e-02</internalNodes>
          <leafValues>
            -9.1024172306060791e-01 1.5474884212017059e-01</leafValues></_>
        <_>
          <internalNodes>
            0 -1 41 2.2827796055935323e-04</internalNodes>
          <leafValues>
            3.8482004404067993e-01 -5.1178836822509766e-01</leafValues></_>
        <_>
          <internalNodes>
            0 -1 7 1.9956808537244797e-02</internalNodes>
          <leafValues>
            -2.7170610427856445e-01 7.6923179626464844e-01</leafValues></_>
        <_>
          <internalNodes>
            0 -1 10 2.0166181027889252e-02</internalNodes>
          <leafValues>
            -2.2268134355545044e-01 7.9282629489898682e-01</leafValues></_>
        <_>
          <internalNodes>
            0 -1 47 -2.6333671994507313e-03</internalNodes>
          <leafValues>
            -8.5520052909851074e-01 3.0701091885566711e-01</leafValues></_>
        <_>
          <internalNodes>
            0 -1 11 2.1094648167490959e-02</internalNodes>
          <leafValues>
            2.3158608376979828e-01 -7.5963288545608521e-01</leafValues></_>
        <_>
          <internalNodes>
            0 -1 38 2.5765490718185902e-03</internalNodes>
          <leafValues>
            -3.0115091800689697e-01 7.5402432680130005e-01</leafValues></_></weakClassifiers></_>
    <!-- stage 4 -->
    <_>
      <maxWeakCount>14</maxWeakCount>
      <stageThreshold>-2.2386988997459412e-01</stageThreshold>
      <weakClassifiers>
        <_>
          <internalNodes>
            0 -1 59 2.1450782194733620e-02</internalNodes>
          <leafValues>
            -3.0674846842885017e-02 7.6642334461212158e-01</leafValues></_>
        <_>
          <internalNodes>
            0 -1 70 1.4836739748716354e-02</internalNodes>
          <leafValues>
            -1.0202454775571823e-01 9.1705852746963501e-01</leafValues></_>
        <_>
          <internalNodes>
            0 -1 58 -1.2053791433572769e-03</internalNodes>
          <leafValues>
            -4.6815598011016846e-01 3.4056583046913147e-01</leafValues></_>
        <_>
          <internalNodes>
            0 -1 23 -2.8775705141015351e-04</internalNodes>
          <leafValues>
            -4.4891425967216492e-01 4.0368798375129700e-01</leafValues></_>
        <_>
          <internalNodes>
            0 -1 27 6.6918041557073593e-03</internalNodes>
          <leafValues>
            -2.3436911404132843e-01 8.4035742282867432e-01</leafValues></_>
        <_>
          <internalNodes>
            0 -1 1 1.5097146853804588e-02</internalNodes>
          <leafValues>
            -2.0133896172046661e-01 7.1304106712341309e-01</leafValues></_>
        <_>
          <internalNodes>
            0 -1 40 -2.4502936750650406e-02</internalNodes>
          <leafValues>
            7.9961323738098145e-01 -2.1554666757583618e-01</leafValues></_>
        <_>
          <internalNodes>
            0 -1 67 2.4923901073634624e-03</internalNodes>
          <leafValues>
            -1.8372443318367004e-01 8.1672042608261108e-01</leafValues></_>
        <_>
          <internalNodes>
            0 -1 53 4.5704580843448639e-03</internalNodes>
          <leafValues>
            -3.2096219062805176e-01 5.2772331237792969e-01</leafValues></_>
        <_>
          <internalNodes>
            0 -1 9 -3.9674807339906693e-03</internalNodes>
          <leafValues>
            -7.8950506448745728e-01 2.0922537147998810e-01</leafValues></_>
        <_>
          <internalNodes>
            0 -1 20 -3.4026993671432137e-04</internalNodes>
          <leafValues>
            -4.8778605461120605e-01 3.8404071331024170e-01</leafValues></_>
        <_>
          <internalNodes>
            0 -1 37 -2.3764488287270069e-04</internalNodes>
          <leafValues>
            -5.0220739841461182e-01 3.5921576619148254e-01</leafValues></_>
        <_>
          <internalNodes>
            0 -1 79 3.4086242318153381e-02</internalNodes>
          <leafValues>
            -2.2576254606246948e-01 8.4535670280456543e-01</leafValues></_>
        <_>
          <internalNodes>
            0 -1 0 -2.3954142816364765e-03</internalNodes>
          <leafValues>
            -5.9176635742187500e-01 4.0251955389976501e-01</leafValues></_></weakClassifiers></_>
    <!-- stage 5 -->
    <_>
      <maxWeakCount>16</maxWeakCount>
      <stageThreshold>-5.7151061296463013e-01</stageThreshold>
      <weakClassifiers>
        <_>
          <internalNodes>
            0 -1 18 4.2814709246158600e-02</internalNodes>
          <leafValues>
            4.6520146727561951e-01 -1.</leafValues></_>
        <_>
          <internalNodes>
            0 -1 68 1.2040473520755768e-02</internalNodes>
          <leafValues>
            -2.8648996353149414e-01 6.5637987852096558e-01</leafValues></_>
        <_>
          <internalNodes>
            0 -1 48 -2.5156396441161633e-03</internalNodes>
          <leafValues>
            -5.7679086923599243e-01 3.6617645621299744e-01</leafValues></_>
        <_>
          <internalNodes>
            0 -1 51 -1.6050279373303056e-03</internalNodes>
          <leafValues>
            2.9561129212379456e-01 -6.0706037282943726e-01</leafValues></_>
        <_>
          <internalNodes>
            0 -1 15 -1.2170109897851944e-02</internalNodes>
          <leafValues>
            5.6576615571975708e-01 -3.4265249967575073e-01</leafValues></_>
        <_>
          <internalNodes>
            0 -1 50 5.2578281611204147e-04</internalNodes>
          <leafValues>
            -4.7849562764167786e-01 4.2502829432487488e-01</leafValues></_>
        <_>
          <internalNodes>
            0 -1 66 3.1152139417827129e-03</internalNodes>
          <leafValues>
            -2.8630551695823669e-01 7.2109586000442505e-01</leafValues></_>
        <_>
          <internalNodes>
            0 -1 55 -2.8274960815906525e-02</internalNodes>
          <leafValues>
            7.3839062452316284e-01 -2.2391358017921448e-01</leafValues></_>
        <_>
          <internalNodes>
            0 -1 33 -3.1653807964175940e-03</internalNodes>
          <leafValues>
            7.0182806253433228e-01 -2.4499864876270294e-01</leafValues></_>
        <_>
          <internalNodes>
            0 -1 61 -1.4879971742630005e-02</internalNodes>
          <leafValues>
            -7.4962353706359863e-01 2.7968302369117737e-01</leafValues></_>
        <_>
          <internalNodes>
            0 -1 24 -1.7058498633559793e-04</internalNodes>
          <leafValues>
            -5.0435650348663330e-01 3.3667919039726257e-01</leafValues></_>
        <_>
          <internalNodes>
            0 -1 25 1.8944848328828812e-02</internalNodes>
          <leafValues>
            -3.3301842212677002e-01 6.0292017459869385e-01</leafValues></_>
        <_>
          <internalNodes>
            0 -1 65 6.4653600566089153e-04</internalNodes>
          <leafValues>
            -3.1386801600456238e-01 5.5537396669387817e-01</leafValues></_>
        <_>
          <internalNodes>
            0 -1 3 6.6710233688354492e-02</internalNodes>
          <leafValues>
            2.0106786489486694e-01 -1.</leafValues></_>
        <_>
          <internalNodes>
            0 -1 71 5.7678046869114041e-04</internalNodes>
          <leafValues>
            -3.7413769960403442e-01 5.2776020765304565e-01</leafValues></_>
        <_>
          <internalNodes>
            0 -1 5 2.5205358397215605e-03</internalNodes>
          <leafValues>
            2.6526370644569397e-01 -7.2149389982223511e-01</leafValues></_></weakClassifiers></_></stages>
  <features>
    <_>
      <rects>
        <_>
          0 2 5 3 -1.</_>
        <_>
          0 3 5 1 3.</_></rects>
      <tilted>0</tilted></_>
    <_>
      <rects>
        <_>
          0 7 9 1 -1.</_>
        <_>
          3 7 3 1 3.</_></rects>
      <tilted>0</tilted></_>
    <_>
      <rects>
        <_>
          0 8 2 8 -1.</_>
        <_>
          1 8 1 8 2.</_></rects>
      <tilted>0</tilted></_>
    <_>
      <rects>
        <_>
          0 8 18 6 -1.</_>
        <_>
          0 10 18 2 3.</_></rects>
      <tilted>0</tilted></_>
    <_>
      <rects>
        <_>
          0 9 6 3 -1.</_>
        <_>
          2 9 2 3 3.</_></rects>
      <tilted>0</tilted></_>
    <_>
      <rects>
        <_>
          0 18 6 2 -1.</_>
        <_>
          0 18 3 1 2.</_>
        <_>
          3 19 3 1 2.</_></rects>
      <tilted>0</tilted></_>
    <_>
      <rects>
        <_>
          1 2 9 7 -1.</_>
        <_>
          4 2 3 7 3.</_></rects>
      <tilted>0</tilted></_>
    <_>
      <rects>
        <_>
          1 5 4 12 -1.</_>
        <_>
          1 5 2 6 2.</_>
        <_>
          3 11 2 6 2.</_></rects>
      <tilted>0</tilted></_>
    <_>
      <rects>
        <_>
          1 5 16 3 -1.</_>
        <_>
          1 6 16 1 3.</_></rects>
      <tilted>0</tilted></_>
    <_>
      <rects>
        <_>
          1 10 9 3 -1.</_>
        <_>
          1 11 9 1 3.</_></rects>
      <tilted>0</tilted></_>
    <_>
      <rects>
        <_>
          2 2 5 6 -1.</_>
        <_>
          2 5 5 3 2.</_></rects>
      <tilted>0</tilted></_>
    <_>
      <rects>
        <_>
          2 6 15 6 -1.</_>
        <_>
          2 8 15 2 3.</_></rects>
      <tilted>0</tilted></_>
    <_>
      <rects>
        <_>
          2 14 15 4 -1.</_>
        <_>
          7 14 5 4 3.</_></rects>
      <tilted>0</tilted></_>
    <_>
      <rects>
        <_>
          3 1 6 14 -1.</_>
        <_>
          3 1 3 7 2.</_>
        <_>
          6 8 3 7 2.</_></rects>
      <tilted>0</tilted></_>
    <_>
      <rects>
        <_>
          3 4 6 6 -1.</_>
        <_>
          3 4 3 3 2.</_>
        <_>
          6 7 3 3 2.</_></rects>
      <tilted>0</tilted></_>
    <_>
      <rects>
        <_>
          3 5 4 6 -1.</_>
        <_>
          3 5 2 3 2.</_>
        <_>
          5 8 2 3 2.</_></rects>
      <tilted>0</tilted></_>
    <_>
      <rects>
        <_>
          3 6 2 1 -1.</_>
        <_>
          4 6 1 1 2.</_></rects>
      <tilted>0</tilted></_>
    <_>
      <rects>
        <_>
          3 7 2 2 -1.</_>
        <_>
          3 7 1 1 2.</_>
        <_>
          4 8 1 1 2.</_></rects>
      <tilted>0</tilted></_>
    <_>
      <rects>
        <_>
          3 7 11 6 -1.</_>
        <_>
          3 10 11 3 2.</_></rects>
      <tilted>0</tilted></_>
    <_>
      <rects>
        <_>
          3 10 2 10 -1.</_>
        <_>
          3 10 1 5 2.</_>
        <_>
          4 15 1 5 2.</_></rects>
      <tilted>0</tilted></_>
    <_>
      <rects>
        <_>
          3 11 3 3 -1.</_>
        <_>
          3 12 3 1 3.</_></rects>
      <tilted>0</tilted></_>
    <_>
      <rects>
        <_>
          3 14 10 4 -1.</_>
        <_>
          3 14 5 2 2.</_>
        <_>
          8 16 5 2 2.</_></rects>
      <tilted>0</tilted></_>
    <_>
      <rects>
        <_>
          4 3 16 16 -1.</_>
        <_>
          4 3 8 8 2.</_>
        <_>
          12 11 8 8 2.</_></rects>
      <tilted>0</tilted></_>
    <_>
      <rects>
        <_>
          4 10 3 6 -1.</_>
        <_>
          4 12 3 2 3.</_></rects>
      <tilted>0</tilted></_>
    <_>
      <rects>
        <_>
          4 12 3 3 -1.</_>
        <_>
          4 13 3 1 3.</_></rects>
      <tilted>0</tilted></_>
    <_>
      <rects>
        <_>
          5 0 1 12 -1.</_>
        <_>
          5 4 1 4 3.</_></rects>
      <tilted>0</tilted></_>
    <_>
      <rects>
        <_>
          5 2 14 4 -1.</_>
        <_>
          12 2 7 4 2.</_></rects>
      <tilted>0</tilted></_>
    <_>
      <rects>
        <_>
          5 14 4 3 -1.</_>
        <_>
          5 15 4 1 3.</_></rects>
      <tilted>0</tilted></_>
    <_>
      <rects>
        <_>
          5 16 11 4 -1.</_>
        <_>
          5 18 11 2 2.</_></rects>
      <tilted>0</tilted></_>
    <_>
      <rects>
        <_>
          5 18 3 2 -1.</_>
        <_>
          6 18 1 2 3.</_></rects>
      <tilted>0</tilted></_>
    <_>
      <rects>
        <_>
          6 0 1 10 -1.</_>
        <_>
          6 5 1 5 2.</_></rects>
      <tilted>0</tilted></_>
    <_>
      <rects>
        <_>
          6 1 1 9 -1.</_>
        <_>
          6 4 1 3 3.</_></rects>
      <tilted>0</tilted></_>
    <_>
      <rects>
        <_>
          6 3 3 3 -1.</_>
        <_>
          7 3 1 3 3.</_></rects>
      <tilted>0</tilted></_>
    <_>
      <rects>
        <_>
          6 6 2 6 -1.</_>
        <_>
          6 6 1 3 2.</_>
        <_>
          7 9 1 3 2.</_></rects>
      <tilted>0</tilted></_>
    <_>
      <rects>
        <_>
          6 8 6 4 -1.</_>
        <_>
          6 8 3 2 2.</_>
        <_>
          9 10 3 2 2.</_></rects>
      <tilted>0</tilted></_>
    <_>
      <rects>
        <_>
          6 13 3 3 -1.</_>
        <_>
          6 14 3 1 3.</_></rects>
      <tilted>0</tilted></_>
    <_>
      <rects>
        <_>
          7 1 3 2 -1.</_>
        <_>
          8 1 1 2 3.</_></rects>
      <tilted>0</tilted></_>
    <_>
      <rects>
        <_>
          7 2 3 2 -1.</_>
        <_>
          8 2 1 2 3.</_></rects>
      <tilted>0</tilted></_>
    <_>
      <rects>
        <_>
          7 7 4 2 -1.</_>
        <_>
          7 8 4 1 2.</_></rects>
      <tilted>0</tilted></_>
    <_>
      <rects>
        <_>
          7 11 6 7 -1.</_>
        <_>
          10 11 3 7 2.</_></rects>
      <tilted>0</tilted></_>
    <_>
      <rects>
        <_>
          7 14 10 4 -1.</_>
        <_>
          7 14 5 2 2.</_>
        <_>
          12 16 5 2 2.</_></rects>
      <tilted>0</tilted></_>
    <_>
      <rects>
        <_>
          8 1 2 16 -1.</_>
        <_>
          9 1 1 16 2.</_></rects>
      <tilted>0</tilted></_>
    <_>
      <rects>
        <_>
          8 3 2 16 -1.</_>
        <_>
          8 3 1 8 2.</_>
        <_>
          9 11 1 8 2.</_></rects>
      <tilted>0</tilted></_>
    <_>
      <rects>
        <_>
          8 3 3 16 -1.</_>
        <_>
          9 3 1 16 3.</_></rects>
      <tilted>0</tilted></_>
    <_>
      <rects>
        <_>
          8 3 3 3 -1.</_>
        <_>
          8 4 3 1 3.</_></rects>
      <tilted>0</tilted></_>
    <_>
      <rects>
        <_>
          8 4 2 3 -1.</_>
        <_>
          8 5 2 1 3.</_></rects>
      <tilted>0</tilted></_>
    <_>
      <rects>
        <_>
          8 7 4 5 -1.</_>
        <_>
          10 7 2 5 2.</_></rects>
      <tilted>0</tilted></_>
    <_>
      <rects>
        <_>
          8 16 3 2 -1.</_>
        <_>
          9 16 1 2 3.</_></rects>
      <tilted>0</tilted></_>
    <_>
      <rects>
        <_>
          8 18 10 2 -1.</_>
        <_>
          8 18 5 1 2.</_>
        <_>
          13 19 5 1 2.</_></rects>
      <tilted>0</tilted></_>
    <_>
      <rects>
        <_>
          9 2 2 6 -1.</_>
        <_>
          9 4 2 2 3.</_></rects>
      <tilted>0</tilted></_>
    <_>
      <rects>
        <_>
          9 6 4 4 -1.</_>
        <_>
          11 6 2 4 2.</_></rects>
      <tilted>0</tilted></_>
    <_>
      <rects>
        <_>
          9 6 3 10 -1.</_>
        <_>
          9 11 3 5 2.</_></rects>
      <tilted>0</tilted></_>
    <_>
      <rects>
        <_>
          9 7 2 12 -1.</_>
        <_>
          9 13 2 6 2.</_></rects>
      <tilted>0</tilted></_>
    <_>
      <rects>
        <_>
          9 7 3 6 -1.</_>
        <_>
          9 9 3 2 3.</_></rects>
      <tilted>0</tilted></_>
    <_>
      <rects>
        <_>
          9 10 9 2 -1.</_>
        <_>
          12 10 3 2 3.</_></rects>
      <tilted>0</tilted></_>
    <_>
      <rects>
        <_>
          9 10 3 9 -1.</_>
        <_>
          9 13 3 3 3.</_></rects>
      <tilted>0</tilted></_>
    <_>
      <rects>
        <_>
          9 13 5 4 -1.</_>
        <_>
          9 15 5 2 2.</_></rects>
      <tilted>0</tilted></_>
    <_>
      <rects>
        <_>
          9 14 10 4 -1.</_>
        <_>
          9 14 5 2 2.</_>
        <_>
          14 16 5 2 2.</_></rects>
      <tilted>0</tilted></_>
    <_>
      <rects>
        <_>
          9 18 6 2 -1.</_>
        <_>
          11 18 2 2 3.</_></rects>
      <tilted>0</tilted></_>
    <_>
      <rects>
        <_>
          10 0 2 9 -1.</_>
        <_>
          10 3 2 3 3.</_></rects>
      <tilted>0</tilted></_>
    <_>
      <rects>
        <_>
          10 0 6 12 -1.</_>
        <_>
          10 0 3 6 2.</_>
        <_>
          13 6 3 6 2.</_></rects>
      <tilted>0</tilted></_>
    <_>
      <rects>
        <_>
          10 1 3 16 -1.</_>
        <_>
          11 1 1 16 3.</_></rects>
      <tilted>0</tilted></_>
    <_>
      <rects>
        <_>
          10 2 3 16 -1.</_>
        <_>
          10 10 3 8 2.</_></rects>
      <tilted>0</tilted></_>
    <_>
      <rects>
        <_>
          10 4 6 3 -1.</_>
        <_>
          12 4 2 3 3.</_></rects>
      <tilted>0</tilted></_>
    <_>
      <rects>
        <_>
          10 5 9 1 -1.</_>
        <_>
          13 5 3 1 3.</_></rects>
      <tilted>0</tilted></_>
    <_>
      <rects>
        <_>
          10 8 1 3 -1.</_>
        <_>
          10 9 1 1 3.</_></rects>
      <tilted>0</tilted></_>
    <_>
      <rects>
        <_>
          10 13 2 3 -1.</_>
        <_>
          10 14 2 1 3.</_></rects>
      <tilted>0</tilted></_>
    <_>
      <rects>
        <_>
          10 14 1 3 -1.</_>
        <_>
          10 15 1 1 3.</_></rects>
      <tilted>0</tilted></_>
    <_>
      <rects>
        <_>
          11 0 1 9 -1.</_>
        <_>
          11 3 1 3 3.</_></rects>
      <tilted>0</tilted></_>
    <_>
      <rects>
        <_>
          11 6 3 1 -1.</_>
        <_>
          12 6 1 1 3.</_></rects>
      <tilted>0</tilted></_>
    <_>
      <rects>
        <_>
          11 14 2 6 -1.</_>
        <_>
          11 16 2 2 3.</_></rects>
      <tilted>0</tilted></_>
    <_>
      <rects>
        <_>
          12 6 1 3 -1.</_>
        <_>
          12 7 1 1 3.</_></rects>
      <tilted>0</tilted></_>
    <_>
      <rects>
        <_>
          13 0 2 12 -1.</_>
        <_>
          13 4 2 4 3.</_></rects>
      <tilted>0</tilted></_>
    <_>
      <rects>
        <_>
          13 6 4 6 -1.</_>
        <_>
          13 6 2 3 2.</_>
        <_>
          15 9 2 3 2.</_></rects>
      <tilted>0</tilted></_>
    <_>
      <rects>
        <_>
          13 9 4 9 -1.</_>
        <_>
          13 12 4 3 3.</_></rects>
      <tilted>0</tilted></_>
    <_>
      <rects>
        <_>
          13 18 2 2 -1.</_>
        <_>
          13 18 1 1 2.</_>
        <_>
          14 19 1 1 2.</_></rects>
      <tilted>0</tilted></_>
    <_>
      <rects>
        <_>
          14 8 6 5 -1.</_>
        <_>
          16 8 2 5 3.</_></rects>
      <tilted>0</tilted></_>
    <_>
      <rects>
        <_>
          15 2 4 12 -1.</_>
        <_>
          17 2 2 12 2.</_></rects>
      <tilted>0</tilted></_>
    <_>
      <rects>
        <_>
          15 19 3 1 -1.</_>
        <_>
          16 19 1 1 3.</_></rects>
      <tilted>0</tilted></_>
    <_>
      <rects>
        <_>
          16 2 1 18 -1.</_>
        <_>
          16 8 1 6 3.</_></rects>
      <tilted>0</tilted></_>
    <_>
      <rects>
        <_>
          18 7 2 6 -1.</_>
        <_>
          19 7 1 6 2.</_></rects>
      <tilted>0</tilted></_>
    <_>
      <rects>
        <_>
          18 14 2 2 -1.</_>
        <_>
          18 14 1 1 2.</_>
        <_>
          19 15 1 1 2.</_></rects>
      <tilted>0</tilted></_>
    <_>
      <rects>
        <_>
          19 2 1 9 -1.</_>
        <_>
          19 5 1 3 3.</_></rects>
      <tilted>0</tilted></_></features></cascade>
</opencv_storage>
