<?xml version="1.0"?>
<opencv_storage>
<cascade>
  <stageType>BOOST</stageType>
  <featureType>HAAR</featureType>
  <height>20</height>
  <width>20</width>
  <stageParams>
    <boostType>GAB</boostType>
    <minHitRate>9.9500000476837158e-01</minHitRate>
    <maxFalseAlarm>1.0000000149011612e-01</maxFalseAlarm>
    <weightTrimRate>9.4999999999999996e-01</weightTrimRate>
    <maxDepth>1</maxDepth>
    <maxWeakCount>100</maxWeakCount></stageParams>
  <featureParams>
    <maxCatCount>0</maxCatCount>
    <featSize>1</featSize>
    <mode>BASIC</mode></featureParams>
  <stageNum>3</stageNum>
  <stages>
    <!-- stage 0 -->
    <_>
      <maxWeakCount>10</maxWeakCount>
      <stageThreshold>2.8157868981361389e-01</stageThreshold>
      <weakClassifiers>
        <_>
          <internalNodes>
            0 -1 21 -4.7304205596446991e-02</internalNodes>
          <leafValues>
            8.2702702283859253e-01 -4.6086955070495605e-01</leafValues></_>
        <_>
          <internalNodes>
            0 -1 12 5.8951176702976227e-02</internalNodes>
          <leafValues>
            3.8874238729476929e-01 -1.</leafValues></_>
        <_>
          <internalNodes>
            0 -1 4 3.6572278477251530e-03</internalNodes>
          <leafValues>
            -4.2169034481048584e-01 7.0358127355575562e-01</leafValues></_>
        <_>
          <internalNodes>
            0 -1 1 3.1385403126478195e-02</internalNodes>
          <leafValues>
            -4.9073928594589233e-01 5.0439393520355225e-01</leafValues></_>
        <_>
          <internalNodes>
            0 -1 11 -3.0087411403656006e-02</internalNodes>
          <leafValues>
            -9.3663960695266724e-01 3.1495788693428040e-01</leafValues></_>
        <_>
          <internalNodes>
            0 -1 23 -5.3358327597379684e-02</internalNodes>
          <leafValues>
            8.0139851570129395e-01 -4.3179318308830261e-01</leafValues></_>
        <_>
          <internalNodes>
            0 -1 26 9.1255173087120056e-02</internalNodes>
          <leafValues>
            3.6832058429718018e-01 -8.5111761093139648e-01</leafValues></_>
        <_>
          <internalNodes>
            0 -1 9 -2.6829075068235397e-03</internalNodes>
          <leafValues>
            7.8844404220581055e-01 -3.8453891873359680e-01</leafValues></_>
        <_>
          <internalNodes>
            0 -1 24 -8.1573324277997017e-03</internalNodes>
          <leafValues>
            7.5903457403182983e-01 -3.2292219996452332e-01</leafValues></_>
        <_>
          <internalNodes>
            0 -1 20 -2.5203831493854523e-02</internalNodes>
          <leafValues>
            7.5285893678665161e-01 -3.5497865080833435e-01</leafValues></_></weakClassifiers></_>
    <!-- stage 1 -->
    <_>
      <maxWeakCount>8</maxWeakCount>
      <stageThreshold>2.5061643123626709e-01</stageThreshold>
      <weakClassifiers>
        <_>
          <internalNodes>
            0 -1 7 9.3546938151121140e-03</internalNodes>
          <leafValues>
            -4.1509434580802917e-01 7.4226802587509155e-01</leafValues></_>
        <_>
          <internalNodes>
            0 -1 8 -4.7669783234596252e-02</internalNodes>
          <leafValues>
            7.3138624429702759e-01 -4.1356211900711060e-01</leafValues></_>
        <_>
          <internalNodes>
            0 -1 10 1.7433426110073924e-03</internalNodes>
          <leafValues>
            -4.6070927381515503e-01 5.0732338428497314e-01</leafValues></_>
        <_>
          <internalNodes>
            0 -1 22 2.9109064489603043e-02</internalNodes>
          <leafValues>
            -3.0044451355934143e-01 9.0570199489593506e-01</leafValues></_>
        <_>
          <internalNodes>
            0 -1 3 -1.1763535439968109e-02</internalNodes>
          <leafValues>
            -5.7400673627853394e-01 4.1035065054893494e-01</leafValues></_>
        <_>
          <internalNodes>
            0 -1 18 -1.6688831150531769e-02</internalNodes>
          <leafValues>
            6.1755710840225220e-01 -3.4771594405174255e-01</leafValues></_>
        <_>
          <internalNodes>
            0 -1 2 2.1276041865348816e-02</internalNodes>
          <leafValues>
            -3.8515025377273560e-01 6.3599801063537598e-01</leafValues></_>
        <_>
          <internalNodes>
            0 -1 14 4.0635161101818085e-02</internalNodes>
          <leafValues>
            2.2963647544384003e-01 -1.</leafValues></_></weakClassifiers></_>
    <!-- stage 2 -->
    <_>
      <maxWeakCount>11</maxWeakCount>
      <stageThreshold>4.8529841005802155e-02</stageThreshold>
      <weakClassifiers>
        <_>
          <internalNodes>
            0 -1 6 -6.2267959117889404e-02</internalNodes>
          <leafValues>
            -8.0487805604934692e-01 5.1351350545883179e-01</leafValues></_>
        <_>
          <internalNodes>
            0 -1 13 -1.1617850512266159e-02</internalNodes>
          <leafValues>
            7.5968217849731445e-01 -2.5565227866172791e-01</leafValues></_>
        <_>
          <internalNodes>
            0 -1 19 6.1277270317077637e-02</internalNodes>
          <leafValues>
            -1.9407653808593750e-01 7.9882448911666870e-01</leafValues></_>
        <_>
          <internalNodes>
            0 -1 27 1.2658361345529556e-02</internalNodes>
          <leafValues>
            2.6483616232872009e-01 -8.1318581104278564e-01</leafValues></_>
        <_>
          <internalNodes>
            0 -1 16 -6.3564255833625793e-02</internalNodes>
          <leafValues>
            -8.2132232189178467e-01 1.8673290312290192e-01</leafValues></_>
        <_>
          <internalNodes>
            0 -1 15 5.5761132389307022e-03</internalNodes>
          <leafValues>
            -2.8529390692710876e-01 6.8400090932846069e-01</leafValues></_>
        <_>
          <internalNodes>
            0 -1 0 -7.6433800160884857e-02</internalNodes>
          <leafValues>
            8.5000425577163696e-01 -2.1372418105602264e-01</leafValues></_>
        <_>
          <internalNodes>
            0 -1 5 1.7779130488634109e-02</internalNodes>
          <leafValues>
            -2.8642183542251587e-01 7.7450877428054810e-01</leafValues></_>
        <_>
          <internalNodes>
            0 -1 17 1.3413820415735245e-02</internalNodes>
          <leafValues>
            -2.5009018182754517e-01 6.0009229183197021e-01</leafValues></_>
        <_>
          <internalNodes>
            0 -1 28 3.8562931586056948e-03</internalNodes>
          <leafValues>
            2.4990667402744293e-01 -8.5030478239059448e-01</leafValues></_>
        <_>
          <internalNodes>
            0 -1 25 1.7786512617021799e-03</internalNodes>
          <leafValues>
            -4.5503270626068115e-01 3.8148701190948486e-01</leafValues></_></weakClassifiers></_></stages>
  <features>
    <_>
      <rects>
        <_>
          0 12 14 6 -1.</_>
        <_>
          0 12 7 3 2.</_>
        <_>
          7 15 7 3 2.</_></rects>
      <tilted>0</tilted></_>
    <_>
      <rects>
        <_>
          1 13 18 2 -1.</_>
        <_>
          7 13 6 2 3.</_></rects>
      <tilted>0</tilted></_>
    <_>
      <rects>
        <_>
          2 15 15 1 -1.</_>
        <_>
          7 15 5 1 3.</_></rects>
      <tilted>0</tilted></_>
    <_>
      <rects>
        <_>
          3 6 9 8 -1.</_>
        <_>
          3 10 9 4 2.</_></rects>
      <tilted>0</tilted></_>
    <_>
      <rects>
        <_>
          3 9 6 2 -1.</_>
        <_>
          5 9 2 2 3.</_></rects>
      <tilted>0</tilted></_>
    <_>
      <rects>
        <_>
          3 12 10 4 -1.</_>
        <_>
          3 12 5 2 2.</_>
        <_>
          8 14 5 2 2.</_></rects>
      <tilted>0</tilted></_>
    <_>
      <rects>
        <_>
          4 0 9 16 -1.</_>
        <_>
          7 0 3 16 3.</_></rects>
      <tilted>0</tilted></_>
    <_>
      <rects>
        <_>
          4 5 12 4 -1.</_>
        <_>
          4 7 12 2 2.</_></rects>
      <tilted>0</tilted></_>
    <_>
      <rects>
        <_>
          4 12 14 6 -1.</_>
        <_>
          4 15 14 3 2.</_></rects>
      <tilted>0</tilted></_>
    <_>
      <rects>
        <_>
          5 0 1 4 -1.</_>
        <_>
          5 2 1 2 2.</_></rects>
      <tilted>0</tilted></_>
    <_>
      <rects>
        <_>
          5 1 2 17 -1.</_>
        <_>
          6 1 1 17 2.</_></rects>
      <tilted>0</tilted></_>
    <_>
      <rects>
        <_>
          5 4 15 8 -1.</_>
        <_>
          5 8 15 4 2.</_></rects>
      <tilted>0</tilted></_>
    <_>
      <rects>
        <_>
          5 7 11 12 -1.</_>
        <_>
          5 13 11 6 2.</_></rects>
      <tilted>0</tilted></_>
    <_>
      <rects>
        <_>
          5 15 10 2 -1.</_>
        <_>
          5 16 10 1 2.</_></rects>
      <tilted>0</tilted></_>
    <_>
      <rects>
        <_>
          6 7 9 4 -1.</_>
        <_>
          9 7 3 4 3.</_></rects>
      <tilted>0</tilted></_>
    <_>
      <rects>
        <_>
          6 10 14 2 -1.</_>
        <_>
          6 10 7 1 2.</_>
        <_>
          13 11 7 1 2.</_></rects>
      <tilted>0</tilted></_>
    <_>
      <rects>
        <_>
          7 0 9 20 -1.</_>
        <_>
          10 0 3 20 3.</_></rects>
      <tilted>0</tilted></_>
    <_>
      <rects>
        <_>
          8 6 12 6 -1.</_>
        <_>
          8 6 6 3 2.</_>
        <_>
          14 9 6 3 2.</_></rects>
      <tilted>0</tilted></_>
    <_>
      <rects>
        <_>
          8 14 10 6 -1.</_>
        <_>
          8 14 5 3 2.</_>
        <_>
          13 17 5 3 2.</_></rects>
      <tilted>0</tilted></_>
    <_>
      <rects>
        <_>
          10 10 10 8 -1.</_>
        <_>
          10 10 5 4 2.</_>
        <_>
          15 14 5 4 2.</_></rects>
      <tilted>0</tilted></_>
    <_>
      <rects>
        <_>
          11 0 6 9 -1.</_>
        <_>
          14 0 3 9 2.</_></rects>
      <tilted>0</tilted></_>
    <_>
      <rects>
        <_>
          11 4 8 12 -1.</_>
        <_>
          15 4 4 12 2.</_></rects>
      <tilted>0</tilted></_>
    <_>
      <rects>
        <_>
          11 12 6 6 -1.</_>
        <_>
          11 12 3 3 2.</_>
        <_>
          14 15 3 3 2.</_></rects>
      <tilted>0</tilted></_>
    <_>
      <rects>
        <_>
          12 0 8 9 -1.</_>
        <_>
          16 0 4 9 2.</_></rects>
      <tilted>0</tilted></_>
    <_>
      <rects>
        <_>
          12 3 6 4 -1.</_>
        <_>
          12 3 3 2 2.</_>
        <_>
          15 5 3 2 2.</_></rects>
      <tilted>0</tilted></_>
    <_>
      <rects>
        <_>
          13 11 4 8 -1.</_>
        <_>
          13 11 2 4 2.</_>
        <_>
          15 15 2 4 2.</_></rects>
      <tilted>0</tilted></_>
    <_>
      <rects>
        <_>
          14 0 5 18 -1.</_>
        <_>
          14 9 5 9 2.</_></rects>
      <tilted>0</tilted></_>
    <_>
      <rects>
        <_>
          14 1 4 19 -1.</_>
        <_>
          16 1 2 19 2.</_></rects>
      <tilted>0</tilted></_>
    <_>
      <rects>
        <_>
          17 17 3 3 -1.</_>
        <_>
          17 18 3 1 3.</_></rects>
      <tilted>0</tilted></_></features></cascade>
</opencv_storage>
